{"learner":{"attributes":{"scikit_learn":"{\"_estimator_type\": \"classifier\"}"},"feature_names":["revenue","expenses","debt","revenue_growth","reporting_consistency","impact_score"],"feature_types":["float","float","float","float","int","int"],"gradient_booster":{"model":{"cats":{"enc":[],"feature_segments":[],"sorted_idx":[]},"gbtree_model_param":{"num_parallel_tree":"1","num_trees":"300"},"iteration_indptr":[0,3,6,9,12,15,18,21,24,27,30,33,36,39,42,45,48,51,54,57,60,63,66,69,72,75,78,81,84,87,90,93,96,99,102,105,108,111,114,117,120,123,126,129,132,135,138,141,144,147,150,153,156,159,162,165,168,171,174,177,180,183,186,189,192,195,198,201,204,207,210,213,216,219,222,225,228,231,234,237,240,243,246,249,252,255,258,261,264,267,270,273,276,279,282,285,288,291,294,297,300],"tree_info":[0,1,2,0,1,2,0,1,2,0,1,2,0,1,2,0,1,2,0,1,2,0,1,2,0,1,2,0,1,2,0,1,2,0,1,2,0,1,2,0,1,2,0,1,2,0,1,2,0,1,2,0,1,2,0,1,2,0,1,2,0,1,2,0,1,2,0,1,2,0,1,2,0,1,2,0,1,2,0,1,2,0,1,2,0,1,2,0,1,2,0,1,2,0,1,2,0,1,2,0,1,2,0,1,2,0,1,2,0,1,2,0,1,2,0,1,2,0,1,2,0,1,2,0,1,2,0,1,2,0,1,2,0,1,2,0,1,2,0,1,2,0,1,2,0,1,2,0,1,2,0,1,2,0,1,2,0,1,2,0,1,2,0,1,2,0,1,2,0,1,2,0,1,2,0,1,2,0,1,2,0,1,2,0,1,2,0,1,2,0,1,2,0,1,2,0,1,2,0,1,2,0,1,2,0,1,2,0,1,2,0,1,2,0,1,2,0,1,2,0,1,2,0,1,2,0,1,2,0,1,2,0,1,2,0,1,2,0,1,2,0,1,2,0,1,2,0,1,2,0,1,2,0,1,2,0,1,2,0,1,2,0,1,2,0,1,2,0,1,2,0,1,2,0,1,2,0,1,2,0,1,2,0,1,2,0,1,2,0,1,2,0,1,2,0,1,2,0,1,2],"trees":[{"base_weights":[2.3763803E-6,2.1972355E-1,-3.6526826E-1,3.5558304E-1,-9.3751496E-1,-5.3214765E-1,6.48641E-1,-1.2977021E0,1.7926474E-1,2.874674E-1,-1.1532125E0,2.2815183E-1,2.1854825E-1,-4.5300904E-1,-8.4250325E-1,2.1207501E-1,-5.5502135E-1,-2.9622778E-1,5.3048384E-1,-4.356053E-1,1.281995E-1,2.0394021E-1,-8.907376E-1,2.0332873E-1,-1.4353595E0,-1.3120952E0,5.1990384E-1,-5.6351586E-3,2.003793E-1,1.5173632E-1,-1.3429123E-1,-7.7770375E-2,-3.3714554E-1,-1.3100126E-1,-4.492422E-1,-1.3429123E-1,-4.1572556E-1,1.8810092E-1,-4.415374E-3],"categories":[],"categories_nodes":[],"categories_segments":[],"categories_sizes":[],"default_left":[0,0,0,0,0,0,0,0,0,0,0,0,0,0,0,0,0,0,0,0,0,0,0,0,0,0,0,0,0,0,0,0,0,0,0,0,0,0,0],"id":0,"left_children":[1,-1,3,5,7,9,11,13,15,17,19,21,-1,-1,23,-1,25,-1,27,-1,29,-1,31,-1,33,35,37,-1,-1,-1,-1,-1,-1,-1,-1,-1,-1,-1,-1],"loss_changes":[1.1734639E2,0E0,1.210614E2,3.4228813E1,6.597124E1,1.7065594E1,3.1367722E0,1.0682999E1,1.6174479E1,5.162515E0,7.4235573E0,9.274928E0,0E0,0E0,3.8473038E1,0E0,1.4998529E1,0E0,1.0110257E0,0E0,1.2033327E0,0E0,4.9854326E-1,0E0,1.2228737E0,5.4998398E-2,4.6649408E-1,0E0,0E0,0E0,0E0,0E0,0E0,0E0,0E0,0E0,0E0,0E0,0E0],"parents":[2147483647,0,0,2,2,3,3,4,4,5,5,6,6,7,7,8,8,9,9,10,10,11,11,14,14,16,16,18,18,20,20,22,22,24,24,25,25,26,26],"right_children":[2,-1,4,6,8,10,12,14,16,18,20,22,-1,-1,24,-1,26,-1,28,-1,30,-1,32,-1,34,36,38,-1,-1,-1,-1,-1,-1,-1,-1,-1,-1,-1,-1],"split_conditions":[4E0,2.1972355E-1,2.1981024E7,1.0459884E7,3.4109532E7,1.0141933E7,1.8163086E7,2.4629556E7,3.870515E7,8.709277E5,7.3082095E6,1.4718976E7,2.1854825E-1,-4.5300904E-1,3.1667136E7,2.1207501E-1,3.9593944E7,-2.9622778E-1,4.2203425E6,-4.356053E-1,1.6941186E7,2.0394021E-1,1.7712252E7,2.0332873E-1,3.29196E7,3.9964124E7,4.6871584E7,-5.6351586E-3,2.003793E-1,1.5173632E-1,-1.3429123E-1,-7.7770375E-2,-3.3714554E-1,-1.3100126E-1,-4.492422E-1,-1.3429123E-1,-4.1572556E-1,1.8810092E-1,-4.415374E-3],"split_indices":[4,0,0,1,1,0,1,1,0,2,2,0,0,0,0,0,1,0,2,0,0,0,0,0,0,0,0,0,0,0,0,0,0,0,0,0,0,0,0],"split_type":[0,0,0,0,0,0,0,0,0,0,0,0,0,0,0,0,0,0,0,0,0,0,0,0,0,0,0,0,0,0,0,0,0,0,0,0,0,0,0],"sum_hessian":[4.3663275E2,1.4496207E2,2.916707E2,1.292433E2,1.6242738E2,3.1874191E1,9.73691E1,1.226938E2,3.973358E1,1.3972248E1,1.7901943E1,1.6155413E1,8.121369E1,8.208696E1,4.0606846E1,2.3141537E1,1.6592045E1,1.746531E0,1.2225718E1,1.4408881E1,3.493062E0,1.1789084E1,4.3663273E0,1.1352451E1,2.9254395E1,9.605921E0,6.986124E0,2.6197965E0,9.605921E0,2.1831636E0,1.3098983E0,1.746531E0,2.6197965E0,2.1831636E0,2.707123E1,1.3098983E0,8.296022E0,5.6762257E0,1.3098983E0],"tree_param":{"num_deleted":"0","num_feature":"6","num_nodes":"39","size_leaf_vector":"1"}},{"base_weights":[-1.1113456E-6,-1.8840975E-1,3.1354818E-1,-2.5328645E-1,7.795189E-1,5.688676E-1,-5.3359777E-1,1.7043089E0,3.8230562E-1,-3.0303812E-1,1.1212236E0,-7.4566565E-2,-1.8712476E-1,6.6458195E-1,-2.9494898E-2,5.195889E-1,-3.738915E-1,2.7548155E-1,-1.663265E-1,8.124255E-3,1.5657233E0,-1.7108348E-1,1.0035288E0,-1.6006768E-1,7.7590364E-1,2.1968137E-1,1.0174875E0,-1.7508958E-1,2.7737808E-1,-1.18771195E-1,2.7737808E-1,2.1896622E-1,-1.4254549E-1,6.255068E-1,6.166848E-2,2.006985E-2,4.073905E-1,4.4412452E-1,-1.0858426E-1,-1.7621389E-2,3.4589884E-1,4.9856994E-1,8.089131E-2],"categories":[],"categories_nodes":[],"categories_segments":[],"categories_sizes":[],"default_left":[0,0,0,0,0,0,0,0,0,0,0,0,0,0,0,0,0,0,0,0,0,0,0,0,0,0,0,0,0,0,0,0,0,0,0,0,0,0,0,0,0,0,0],"id":1,"left_children":[1,-1,3,5,7,9,11,13,15,17,19,21,-1,-1,23,25,27,29,-1,31,33,-1,35,-1,37,39,41,-1,-1,-1,-1,-1,-1,-1,-1,-1,-1,-1,-1,-1,-1,-1,-1],"loss_changes":[6.595961E1,0E0,5.9208E1,2.370746E1,4.4480705E1,1.3008246E1,3.1088333E0,3.251322E1,9.250543E0,1.75083E0,8.06003E0,7.868478E0,0E0,0E0,4.199261E0,1.0863876E1,4.348467E0,2.1077974E0,0E0,2.3215706E0,7.8034515E0,0E0,1.4570165E0,0E0,3.7396438E0,1.2440404E1,1.2870655E1,0E0,0E0,0E0,0E0,0E0,0E0,0E0,0E0,0E0,0E0,0E0,0E0,0E0,0E0,0E0,0E0],"parents":[2147483647,0,0,2,2,3,3,4,4,5,5,6,6,7,7,8,8,9,9,10,10,11,11,14,14,15,15,16,16,17,17,19,19,20,20,22,22,24,24,25,25,26,26],"right_children":[2,-1,4,6,8,10,12,14,16,18,20,22,-1,-1,24,26,28,30,-1,32,34,-1,36,-1,38,40,42,-1,-1,-1,-1,-1,-1,-1,-1,-1,-1,-1,-1,-1,-1,-1,-1],"split_conditions":[4E0,-1.8840975E-1,2.25096E7,1.0459884E7,6.3247345E-2,1.004153E7,1.8163086E7,3.4109532E7,3.78712E7,4.2203425E6,2.8247875E6,1.4718976E7,-1.8712476E-1,6.6458195E-1,4.0116464E7,6.5229165E6,4.6871584E7,6.548664E6,-1.663265E-1,1.3138818E7,7.3082095E6,-1.7108348E-1,3.5871552E6,-1.6006768E-1,3.9593944E7,3.1425324E7,2.368263E7,-1.7508958E-1,2.7737808E-1,-1.18771195E-1,2.7737808E-1,2.1896622E-1,-1.4254549E-1,6.255068E-1,6.166848E-2,2.006985E-2,4.073905E-1,4.4412452E-1,-1.0858426E-1,-1.7621389E-2,3.4589884E-1,4.9856994E-1,8.089131E-2],"split_indices":[4,0,0,1,3,0,1,1,1,2,2,0,0,0,0,2,0,0,0,0,2,0,2,0,1,1,1,0,0,0,0,0,0,0,0,0,0,0,0,0,0,0,0],"split_type":[0,0,0,0,0,0,0,0,0,0,0,0,0,0,0,0,0,0,0,0,0,0,0,0,0,0,0,0,0,0,0,0,0,0,0,0,0,0,0,0,0,0,0],"sum_hessian":[3.3295844E2,1.105422E2,2.2241623E2,1.00553444E2,1.21862785E2,2.530484E1,7.5248604E1,3.5626553E1,8.623624E1,9.988753E0,1.5316088E1,1.265242E1,6.2596184E1,2.7302591E1,8.32396E0,7.3250854E1,1.2985379E1,2.996626E0,6.992127E0,4.661418E0,1.065467E1,8.989878E0,3.6625428E0,5.327335E0,2.996626E0,4.661418E1,2.6636675E1,1.1653545E1,1.3318337E0,1.6647922E0,1.3318337E0,1.6647922E0,2.996626E0,7.3250856E0,3.3295844E0,1.3318337E0,2.330709E0,1.6647922E0,1.3318337E0,3.6625427E1,9.988753E0,1.3651296E1,1.2985379E1],"tree_param":{"num_deleted":"0","num_feature":"6","num_nodes":"43","size_leaf_vector":"1"}},{"base_weights":[-3.4461539E-6,-3.4861356E-1,4.7402158E-1,3.4908405E-1,-4.7479543E-1,-1.6303203E-1,1.0049403E0,2.3221004E0,-2.5447273E-1,-2.0108962E-1,-1.664796E-1,-1.606687E-1,1.874425E0,1.8322825E-1,8.3057064E-1,-3.7444437E-1,1.8322825E-1,-1.5777776E-1,3.5934356E-1,3.2040937E0,-1.9191006E-1,-1.5291652E-1,8.458513E-2,1.2402542E0,-1.3826846E-1,3.4191866E0,-9.147762E-2,-1.5472908E-1,8.4208703E-1,1.8322825E-1,-1.0795276E-1,-1.0795276E-1,6.9511855E-1,7.112347E-1,1.2096868E0,5.952871E-1,-1.0795276E-1],"categories":[],"categories_nodes":[],"categories_segments":[],"categories_sizes":[],"default_left":[0,0,0,0,0,0,0,0,0,0,0,0,0,0,0,0,0,0,0,0,0,0,0,0,0,0,0,0,0,0,0,0,0,0,0,0,0],"id":2,"left_children":[1,3,5,7,9,-1,11,13,15,17,-1,-1,19,-1,-1,21,-1,-1,23,25,27,-1,29,31,-1,33,-1,-1,35,-1,-1,-1,-1,-1,-1,-1,-1],"loss_changes":[3.2944073E1,1.0279073E1,4.618288E1,2.2228529E1,2.031479E0,0E0,7.5832985E1,1.6366272E0,1.7665584E0,4.502874E0,0E0,0E0,9.9341064E1,0E0,0E0,8.895483E-1,0E0,0E0,7.2835155E0,1.7587097E1,5.461456E0,0E0,1.1459022E0,9.017704E0,0E0,3.7689362E0,0E0,0E0,6.151038E0,0E0,0E0,0E0,0E0,0E0,0E0,0E0,0E0],"parents":[2147483647,0,0,1,1,2,2,3,3,4,4,6,6,7,7,8,8,9,9,12,12,15,15,18,18,19,19,20,20,22,22,23,23,25,25,28,28],"right_children":[2,4,6,8,10,-1,12,14,16,18,-1,-1,20,-1,-1,22,-1,-1,24,26,28,-1,30,32,-1,34,-1,-1,36,-1,-1,-1,-1,-1,-1,-1,-1],"split_conditions":[2.8932998E7,6.439859E6,9.729079E-2,1.7488144E6,1.6219688E7,-1.6303203E-1,4E0,1.5531975E-1,9.5E1,1.9292156E7,-1.664796E-1,-1.606687E-1,2.8809892E7,1.8322825E-1,8.3057064E-1,2.225873E7,1.8322825E-1,-1.5777776E-1,4.304274E6,9.024533E6,4.6607108E7,-1.5291652E-1,6.0192345E6,1.9903532E-1,-1.3826846E-1,3.831936E7,-9.147762E-2,-1.5472908E-1,3.355044E7,1.8322825E-1,-1.0795276E-1,-1.0795276E-1,6.9511855E-1,7.112347E-1,1.2096868E0,5.952871E-1,-1.0795276E-1],"split_indices":[0,1,3,2,1,0,4,3,5,0,0,0,1,0,0,0,0,0,2,2,0,0,2,3,0,0,0,0,1,0,0,0,0,0,0,0,0],"split_type":[0,0,0,0,0,0,0,0,0,0,0,0,0,0,0,0,0,0,0,0,0,0,0,0,0,0,0,0,0,0,0,0,0,0,0,0,0],"sum_hessian":[1.9735907E2,1.1387618E2,8.348289E1,1.7170238E1,9.670595E1,2.8617065E1,5.486582E1,3.3551042E0,1.3815135E1,2.2696293E1,7.400965E1,1.9933266E1,3.4932556E1,1.1841544E0,2.1709497E0,1.26309805E1,1.1841544E0,1.4407212E1,8.289081E0,2.0920061E1,1.4012494E1,9.670594E0,2.960386E0,3.7498224E0,4.5392585E0,1.9735907E1,1.1841544E0,1.1052108E1,2.960386E0,1.1841544E0,1.7762316E0,1.7762316E0,1.9735907E0,9.078517E0,1.065739E1,1.1841544E0,1.7762316E0],"tree_param":{"num_deleted":"0","num_feature":"6","num_nodes":"37","size_leaf_vector":"1"}},{"base_weights":[2.8513085E-2,1.965741E-1,-2.370333E-1,3.3620617E-1,-5.814278E-1,-3.322652E-1,6.068254E-1,-7.614756E-1,2.944074E-1,2.7727675E-1,-7.053147E-1,1.7593284E-1,1.9187014E-1,-2.8270715E-1,-4.9515823E-1,6.060262E-1,-4.772193E-1,-3.2330897E-1,1.7736855E-1,-2.7882677E-1,3.2544842E-1,1.6272607E-1,-2.1348797E-1,6.0596937E-1,-8.375865E-1,-2.8078796E-3,1.9245857E-1,-2.8355363E-1,1.5279052E-1,1.1821758E-1,-1.9758272E-1,-9.623989E-3,1.4507566E-1,1.9841187E-1,1.5316376E-3,-2.727288E-1,-1.12205334E-1],"categories":[],"categories_nodes":[],"categories_segments":[],"categories_sizes":[],"default_left":[0,0,0,0,0,0,0,0,0,0,0,0,0,0,0,0,0,0,0,0,0,0,0,0,0,0,0,0,0,0,0,0,0,0,0,0,0],"id":3,"left_children":[1,-1,3,5,7,9,11,13,15,17,19,21,-1,-1,23,25,27,29,-1,-1,31,-1,-1,33,35,-1,-1,-1,-1,-1,-1,-1,-1,-1,-1,-1,-1],"loss_changes":[6.881375E1,0E0,5.7546844E1,2.0039555E1,2.8899239E1,7.5283175E0,9.9375534E-1,6.8127975E0,7.91846E0,2.634987E0,4.988744E0,2.6359682E0,0E0,0E0,2.4348516E1,5.094137E-1,4.9533424E0,1.4852455E0,0E0,0E0,2.62228E-1,0E0,0E0,5.152445E-1,1.2727127E0,0E0,0E0,0E0,0E0,0E0,0E0,0E0,0E0,0E0,0E0,0E0,0E0],"parents":[2147483647,0,0,2,2,3,3,4,4,5,5,6,6,7,7,8,8,9,9,10,10,11,11,14,14,15,15,16,16,17,17,20,20,23,23,24,24],"right_children":[2,-1,4,6,8,10,12,14,16,18,20,22,-1,-1,24,26,28,30,-1,-1,32,-1,-1,34,36,-1,-1,-1,-1,-1,-1,-1,-1,-1,-1,-1,-1],"split_conditions":[4E0,1.965741E-1,2.064172E7,1.0459884E7,3.5641584E7,1.004153E7,1.3530581E7,2.286419E7,4.474091E7,4.2203425E6,7.3082095E6,1.4718976E7,1.9187014E-1,-2.8270715E-1,3.1667136E7,-1.846051E-1,4.163563E7,5.091535E6,1.7736855E-1,-2.7882677E-1,4.400102E6,1.6272607E-1,-2.1348797E-1,6.1493975E-1,3.4109532E7,-2.8078796E-3,1.9245857E-1,-2.8355363E-1,1.5279052E-1,1.1821758E-1,-1.9758272E-1,-9.623989E-3,1.4507566E-1,1.9841187E-1,1.5316376E-3,-2.727288E-1,-1.12205334E-1],"split_indices":[4,0,0,1,1,0,1,1,0,2,2,0,0,0,0,3,1,0,0,0,1,0,0,3,1,0,0,0,0,0,0,0,0,0,0,0,0],"split_type":[0,0,0,0,0,0,0,0,0,0,0,0,0,0,0,0,0,0,0,0,0,0,0,0,0,0,0,0,0,0,0,0,0,0,0,0,0],"sum_hessian":[4.1154404E2,1.220405E2,2.8950354E2,1.08661644E2,1.8084189E2,3.1247557E1,7.7414085E1,1.5011327E2,3.072862E1,1.1960879E1,1.9286678E1,5.9170322E0,7.1497055E1,8.788424E1,6.222903E1,2.2041748E1,8.686872E0,4.095821E0,7.8650584E0,1.5923021E1,3.363656E0,4.4630365E0,1.4539957E0,1.4578888E1,4.7650143E1,1.2424216E0,2.0799326E1,5.920412E0,2.7664595E0,1.2487991E0,2.8470216E0,1.2759746E0,2.0876815E0,1.3255905E1,1.322983E0,4.0449398E1,7.2007446E0],"tree_param":{"num_deleted":"0","num_feature":"6","num_nodes":"37","size_leaf_vector":"1"}},{"base_weights":[-1.6511334E-2,-1.7586637E-1,1.991398E-1,-2.0202462E-1,4.733606E-1,2.615975E-1,-1.7560863E-1,9.0372646E-1,1.9906276E-1,-3.7323767E-1,5.777457E-1,1.0488145E0,-3.6558536E-1,-2.7304196E-1,2.8606546E-1,6.060668E-2,-1.6418289E-1,-1.3130942E-1,8.3015245E-1,3.284786E-1,4.8933515E-1,1.8030003E-2,-1.460379E-1,-5.050711E-1,4.997777E-1,3.6606196E-1,-4.0321016E-1,1.8870465E-1,-1.2704453E-1,2.8426352E-1,-1.31353E-1,3.0874085E-1,7.879404E-2,-1.1559938E-1,2.9712206E-1,3.22795E-2,-1.7549828E-1,2.2353135E-1,6.5712035E-3,7.056654E-2,1.9523548E-1,3.467676E-2,-1.5287602E-1],"categories":[],"categories_nodes":[],"categories_segments":[],"categories_sizes":[],"default_left":[0,0,0,0,0,0,0,0,0,0,0,0,0,0,0,0,0,0,0,0,0,0,0,0,0,0,0,0,0,0,0,0,0,0,0,0,0,0,0,0,0,0,0],"id":4,"left_children":[1,-1,3,5,7,9,-1,11,13,15,17,19,21,23,25,27,-1,29,31,-1,33,-1,-1,35,37,39,41,-1,-1,-1,-1,-1,-1,-1,-1,-1,-1,-1,-1,-1,-1,-1,-1],"loss_changes":[3.970353E1,0E0,2.5890694E1,1.7197992E1,1.629705E1,9.066358E0,0E0,1.0337318E1,3.6321995E0,1.1859801E0,5.447858E0,7.223129E-1,3.5358548E-1,2.7586064E0,4.2032237E0,1.7168936E0,0E0,3.2902818E0,2.229416E0,0E0,2.8014312E0,0E0,0E0,6.1364055E-1,4.209541E-1,2.3215542E0,5.0727844E-1,0E0,0E0,0E0,0E0,0E0,0E0,0E0,0E0,0E0,0E0,0E0,0E0,0E0,0E0,0E0,0E0],"parents":[2147483647,0,0,2,2,3,3,4,4,5,5,7,7,8,8,9,9,10,10,11,11,12,12,13,13,14,14,15,15,17,17,18,18,20,20,23,23,24,24,25,25,26,26],"right_children":[2,-1,4,6,8,10,-1,12,14,16,18,20,22,24,26,28,-1,30,32,-1,34,-1,-1,36,38,40,42,-1,-1,-1,-1,-1,-1,-1,-1,-1,-1,-1,-1,-1,-1,-1,-1],"split_conditions":[4E0,-1.7586637E-1,2.3638284E7,1.8163086E7,1.067766E-1,1.004153E7,-1.7560863E-1,3.8388412E7,7.7768125E6,4.1659565E6,2.8247875E6,3.326989E7,-1.4965047E-1,7.0932085E6,3.929437E7,4.2203425E6,-1.6418289E-1,6.549641E-2,7.3082095E6,3.284786E-1,3.9964124E7,1.8030003E-2,-1.460379E-1,2.5788546E7,3.0112406E7,8E0,2E1,1.8870465E-1,-1.2704453E-1,2.8426352E-1,-1.31353E-1,3.0874085E-1,7.879404E-2,-1.1559938E-1,2.9712206E-1,3.22795E-2,-1.7549828E-1,2.2353135E-1,6.5712035E-3,7.056654E-2,1.9523548E-1,3.467676E-2,-1.5287602E-1],"split_indices":[4,0,0,1,3,0,0,1,1,1,2,1,3,2,1,2,0,3,2,0,0,0,0,0,0,4,5,0,0,0,0,0,0,0,0,0,0,0,0,0,0,0,0],"split_type":[0,0,0,0,0,0,0,0,0,0,0,0,0,0,0,0,0,0,0,0,0,0,0,0,0,0,0,0,0,0,0,0,0,0,0,0,0,0,0,0,0,0,0],"sum_hessian":[3.2121426E2,8.7729904E1,2.3348434E2,9.490652E1,1.3857784E2,4.3098824E1,5.1807693E1,5.304966E1,8.5528175E1,1.4267888E1,2.8830935E1,4.7763763E1,5.2858973E0,1.2976295E1,7.255188E1,4.2715373E0,9.996351E0,7.694762E0,2.1136173E1,4.3242523E1,4.5212393E0,1.2832474E0,4.0026503E0,1.0246402E1,2.7298934E0,6.5427376E1,7.1245046E0,1.826964E0,2.4445732E0,1.2398651E0,6.4548974E0,1.5046871E1,6.0893006E0,1.7308567E0,2.7903829E0,1.1424456E0,9.103956E0,1.4343374E0,1.2955561E0,4.6078728E1,1.9348648E1,1.1975306E0,5.9269743E0],"tree_param":{"num_deleted":"0","num_feature":"6","num_nodes":"43","size_leaf_vector":"1"}},{"base_weights":[-3.2613043E-2,-1.6231853E-1,1.5257171E-1,-1.6022211E-1,3.9262018E-1,7.0939577E-1,-3.8404834E-1,1.4140551E-1,1.1248153E0,-1.5905619E-1,5.275477E-1,8.332028E-1,-4.7180033E-1,1.3186878E0,5.367449E-1,3.4951538E-1,-1.0936896E-1,3.8864106E-1,-1.3261583E-1,-1.567874E-1,2.3232114E-2,4.6053576E-1,1.6924413E-1,-1.4719497E-1,2.8262854E-1],"categories":[],"categories_nodes":[],"categories_segments":[],"categories_sizes":[],"default_left":[0,0,0,0,0,0,0,0,0,0,0,0,0,0,0,0,0,0,0,0,0,0,0,0,0],"id":5,"left_children":[1,-1,3,-1,5,7,9,11,13,-1,15,17,19,21,23,-1,-1,-1,-1,-1,-1,-1,-1,-1,-1],"loss_changes":[1.8683266E1,0E0,2.4206802E1,0E0,2.695486E1,1.8100086E1,4.551761E0,1.474556E1,4.3715134E0,0E0,3.2295697E0,1.01576605E1,5.5895424E-1,4.4934998E0,5.7646666E0,0E0,0E0,0E0,0E0,0E0,0E0,0E0,0E0,0E0,0E0],"parents":[2147483647,0,0,2,2,4,4,5,5,6,6,7,7,8,8,10,10,11,11,12,12,13,13,14,14],"right_children":[2,-1,4,-1,6,8,10,12,14,-1,16,18,20,22,24,-1,-1,-1,-1,-1,-1,-1,-1,-1,-1],"split_conditions":[9.729079E-2,-1.6231853E-1,4E0,-1.6022211E-1,2.8809892E7,2.8932998E7,4.6607108E7,4.304274E6,6.5229165E6,-1.5905619E-1,3.355044E7,1.6219688E7,9E1,2.368263E7,3.5153772E7,3.4951538E-1,-1.0936896E-1,3.8864106E-1,-1.3261583E-1,-1.567874E-1,2.3232114E-2,4.6053576E-1,1.6924413E-1,-1.4719497E-1,2.8262854E-1],"split_indices":[3,0,4,0,1,0,0,2,2,0,1,1,5,1,0,0,0,0,0,0,0,0,0,0,0],"split_type":[0,0,0,0,0,0,0,0,0,0,0,0,0,0,0,0,0,0,0,0,0,0,0,0,0],"sum_hessian":[1.9655011E2,5.1961456E1,1.4458865E2,3.7136597E1,1.0745205E2,7.638424E1,3.1067808E1,3.2833042E1,4.3551197E1,2.7136003E1,3.9318042E0,1.5259286E1,1.7573755E1,3.1818893E1,1.1732306E1,2.114693E0,1.8171111E0,1.1187924E1,4.071362E0,1.612965E1,1.4441059E0,2.3922491E1,7.8964014E0,3.259751E0,8.472554E0],"tree_param":{"num_deleted":"0","num_feature":"6","num_nodes":"25","size_leaf_vector":"1"}},{"base_weights":[2.8052885E-2,1.8155447E-1,-1.9356902E-1,3.036386E-1,-4.7147098E-1,-2.5794983E-1,5.564425E-1,-6.1530113E-1,2.5781018E-1,4.6834046E-1,-4.8244268E-1,1.8407358E-1,5.883701E-1,-2.3145911E-1,-3.9061922E-1,1.794987E-1,-3.534507E-1,-2.6242607E-3,1.6559447E-1,-6.466052E-1,3.277552E-1,1.5531236E-1,-1.7175537E-1,2.9212585E-1,1.8092471E-1,5.6579536E-1,-6.789066E-1,-2.2307947E-1,1.4437115E-1,-4.971588E-2,-2.2583623E-1,-7.653517E-3,1.4205568E-1,-3.6584828E-2,1.3360001E-1,-5.522904E-3,1.8687192E-1,-1.2325969E-1,-2.394412E-1],"categories":[],"categories_nodes":[],"categories_segments":[],"categories_sizes":[],"default_left":[0,0,0,0,0,0,0,0,0,0,0,0,0,0,0,0,0,0,0,0,0,0,0,0,0,0,0,0,0,0,0,0,0,0,0,0,0,0,0],"id":6,"left_children":[1,-1,3,5,7,9,11,13,15,17,19,21,23,-1,25,-1,27,-1,-1,29,31,-1,-1,33,-1,35,37,-1,-1,-1,-1,-1,-1,-1,-1,-1,-1,-1,-1],"loss_changes":[4.5983696E1,0E0,3.604938E1,1.3457179E1,1.7684486E1,5.0836797E0,6.642723E-1,4.6077957E0,6.087212E0,3.057878E-1,3.304461E0,1.9591368E0,8.269882E-2,0E0,1.6758286E1,0E0,3.8514752E0,0E0,0E0,8.796444E-1,2.4797559E-1,0E0,0E0,3.5562322E-1,0E0,4.8858166E-1,1.1449337E0,0E0,0E0,0E0,0E0,0E0,0E0,0E0,0E0,0E0,0E0,0E0,0E0],"parents":[2147483647,0,0,2,2,3,3,4,4,5,5,6,6,7,7,8,8,9,9,10,10,11,11,12,12,14,14,16,16,19,19,20,20,23,23,25,25,26,26],"right_children":[2,-1,4,6,8,10,12,14,16,18,20,22,24,-1,26,-1,28,-1,-1,30,32,-1,-1,34,-1,36,38,-1,-1,-1,-1,-1,-1,-1,-1,-1,-1,-1,-1],"split_conditions":[4E0,1.8155447E-1,2.064172E7,1.0459884E7,3.5641584E7,6.677584E6,1.3530581E7,2.286419E7,4.2078108E7,9.9089125E5,7.3082095E6,1.4718976E7,4.8142838E5,-2.3145911E-1,3.1667136E7,1.794987E-1,4.163563E7,-2.6242607E-3,1.6559447E-1,1.004153E7,4.400102E6,1.5531236E-1,-1.7175537E-1,8.7461665E-2,1.8092471E-1,2.3518474E7,3.8251164E7,-2.2307947E-1,1.4437115E-1,-4.971588E-2,-2.2583623E-1,-7.653517E-3,1.4205568E-1,-3.6584828E-2,1.3360001E-1,-5.522904E-3,1.8687192E-1,-1.2325969E-1,-2.394412E-1],"split_indices":[4,0,0,1,1,0,1,1,0,1,2,0,2,0,0,0,1,0,0,0,1,0,0,3,0,1,0,0,0,0,0,0,0,0,0,0,0,0,0],"split_type":[0,0,0,0,0,0,0,0,0,0,0,0,0,0,0,0,0,0,0,0,0,0,0,0,0,0,0,0,0,0,0,0,0,0,0,0,0,0,0],"sum_hessian":[3.5760043E2,9.8739876E1,2.5886053E2,9.277671E1,1.6608383E2,2.8793455E1,6.3983253E1,1.3885492E2,2.722892E1,6.5420566E0,2.2251398E1,5.587069E0,5.8396183E1,8.0468475E1,5.8386436E1,1.75008E1,9.728121E0,1.1094097E0,5.4326468E0,1.8670328E1,3.581071E0,4.0964108E0,1.4906583E0,3.7496495E0,5.4646534E1,1.3300023E1,4.508641E1,6.703786E0,3.0243354E0,3.8400302E0,1.4830297E1,1.2869792E0,2.2940917E0,1.0677787E0,2.6818707E0,1.2447513E0,1.2055271E1,1.5249708E1,2.9836704E1],"tree_param":{"num_deleted":"0","num_feature":"6","num_nodes":"39","size_leaf_vector":"1"}},{"base_weights":[-1.4928235E-2,-1.6736506E-1,1.5498848E-1,-3.9729097E-1,2.762206E-1,-2.4520406E-2,-1.6466919E-1,3.5574988E-1,-3.4437543E-1,3.669998E-1,-1.4595409E-1,6.8606585E-1,1.7564939E-1,-1.6147585E-1,2.5881103E-1,-1.1164505E-1,6.14254E-1,3.1006362E-2,7.5680566E-1,-1.0665531E-1,4.0978575E-1,2.3430407E-1,-1.21924214E-1,4.91233E-3,2.321906E-1,1.1798355E-1,-1.2123346E-1,2.4116248E-1,1.04573525E-1,-1.1965602E-1,4.8575502E-2,1.583532E-1,-3.777023E-2],"categories":[],"categories_nodes":[],"categories_segments":[],"categories_sizes":[],"default_left":[0,0,0,0,0,0,0,0,0,0,0,0,0,0,0,0,0,0,0,0,0,0,0,0,0,0,0,0,0,0,0,0,0],"id":7,"left_children":[1,-1,3,5,7,9,-1,11,13,15,-1,17,19,-1,21,-1,23,25,27,29,31,-1,-1,-1,-1,-1,-1,-1,-1,-1,-1,-1,-1],"loss_changes":[2.687307E1,0E0,1.4968437E1,2.2672606E0,9.133236E0,2.4783444E0,0E0,9.53598E0,2.623962E0,1.5905375E0,0E0,2.6146412E0,7.07586E0,0E0,2.3472676E0,0E0,5.565882E-1,1.1979488E0,7.062702E-1,3.912064E0,3.7574673E0,0E0,0E0,0E0,0E0,0E0,0E0,0E0,0E0,0E0,0E0,0E0,0E0],"parents":[2147483647,0,0,2,2,3,3,4,4,5,5,7,7,8,8,9,9,11,11,12,12,14,14,16,16,17,17,18,18,19,19,20,20],"right_children":[2,-1,4,6,8,10,-1,12,14,16,-1,18,20,-1,22,-1,24,26,28,30,32,-1,-1,-1,-1,-1,-1,-1,-1,-1,-1,-1,-1],"split_conditions":[4E0,-1.6736506E-1,1.2878077E7,1.0459884E7,3.78712E7,4.2203425E6,-1.6466919E-1,1.067766E-1,4.2078108E7,6.548664E6,-1.4595409E-1,2.1560404E7,4.7554605E6,-1.6147585E-1,4.163563E7,-1.1164505E-1,3.5686318E6,1.5685528E7,3.144829E7,2.0586722E7,4.370157E7,2.3430407E-1,-1.21924214E-1,4.91233E-3,2.321906E-1,1.1798355E-1,-1.2123346E-1,2.4116248E-1,1.04573525E-1,-1.1965602E-1,4.8575502E-2,1.583532E-1,-3.777023E-2],"split_indices":[4,0,0,1,1,2,0,3,0,0,0,0,2,0,1,0,1,1,1,1,0,0,0,0,0,0,0,0,0,0,0,0,0],"split_type":[0,0,0,0,0,0,0,0,0,0,0,0,0,0,0,0,0,0,0,0,0,0,0,0,0,0,0,0,0,0,0,0,0],"sum_hessian":[2.893471E2,6.842315E1,2.2092397E2,3.935644E1,1.8156752E2,1.1714498E1,2.7641943E1,1.6132101E2,2.0246508E1,6.4521675E0,5.26233E0,5.593086E1,1.0539016E2,1.5403224E1,4.843284E0,1.4906967E0,4.9614706E0,5.59147E0,5.0339386E1,4.8027065E1,5.73631E1,2.6158102E0,2.2274737E0,1.2784005E0,3.6830702E0,3.1036103E0,2.4878595E0,4.4266235E1,6.0731516E0,2.2769556E1,2.525751E1,4.7016026E1,1.034707E1],"tree_param":{"num_deleted":"0","num_feature":"6","num_nodes":"33","size_leaf_vector":"1"}},{"base_weights":[-3.1958025E-2,-1.583297E-1,1.22639306E-1,-1.5536745E-1,2.9702133E-1,5.1046866E-1,-3.5738313E-1,-9.353582E-2,7.015042E-1,-1.5495893E-1,3.8225392E-1,5.459458E-1,-1.510764E-1,8.869883E-1,1.73015E-1,2.571027E-1,-1.09159395E-1,3.022692E-1,-1.19058944E-1,3.1429768E-1,1.2567037E-1,-1.2972517E-1,2.2321251E-1],"categories":[],"categories_nodes":[],"categories_segments":[],"categories_sizes":[],"default_left":[0,0,0,0,0,0,0,0,0,0,0,0,0,0,0,0,0,0,0,0,0,0,0],"id":8,"left_children":[1,-1,3,-1,5,7,9,11,13,-1,15,17,-1,19,21,-1,-1,-1,-1,-1,-1,-1,-1],"loss_changes":[1.3796969E1,0E0,1.5498942E1,0E0,1.5354432E1,9.563763E0,3.4112952E0,5.692834E0,5.988325E0,0E0,2.227901E0,4.121974E0,0E0,3.0308495E0,6.378514E0,0E0,0E0,0E0,0E0,0E0,0E0,0E0,0E0],"parents":[2147483647,0,0,2,2,4,4,5,5,6,6,7,7,8,8,10,10,11,11,13,13,14,14],"right_children":[2,-1,4,-1,6,8,10,12,14,-1,16,18,-1,20,22,-1,-1,-1,-1,-1,-1,-1,-1],"split_conditions":[9.729079E-2,-1.583297E-1,4E0,-1.5536745E-1,2.8809892E7,2.1180204E7,4.6607108E7,2.702477E6,6.5229165E6,-1.5495893E-1,3.355044E7,8.781513E6,-1.510764E-1,2.0586722E7,3.5605868E7,2.571027E-1,-1.09159395E-1,3.022692E-1,-1.19058944E-1,3.1429768E-1,1.2567037E-1,-1.2972517E-1,2.2321251E-1],"split_indices":[3,0,4,0,1,0,0,2,2,0,1,1,0,1,0,0,0,0,0,0,0,0,0],"split_type":[0,0,0,0,0,0,0,0,0,0,0,0,0,0,0,0,0,0,0,0,0,0,0],"sum_hessian":[1.7815395E2,4.1772373E1,1.3638158E2,2.8762571E1,1.0761901E2,8.131607E1,2.630294E1,1.9661598E1,6.165447E1,2.189374E1,4.4092E0,7.552294E0,1.2109304E1,4.513505E1,1.6519419E1,2.6037877E0,1.8054125E0,5.023839E0,2.5284548E0,3.2679623E1,1.2455429E1,8.135974E0,8.383446E0],"tree_param":{"num_deleted":"0","num_feature":"6","num_nodes":"23","size_leaf_vector":"1"}},{"base_weights":[2.517145E-2,1.714612E-1,-1.656679E-1,2.73274E-1,-4.0120947E-1,-2.2619948E-1,5.20772E-1,-6.1680394E-1,-2.7486213E-2,4.2834958E-1,-4.18813E-1,2.2451249E-1,1.7089282E-1,-2.0329677E-1,-4.157788E-1,1.7590725E-1,-4.3313745E-1,1.5376708E-1,-6.67842E-3,-5.897425E-1,2.4487624E-1,1.527602E-1,-3.289534E-1,1.6910732E-1,-2.0237963E-1,-6.1632156E-1,3.9689934E-1,-5.8060277E-2,-2.017089E-1,1.4571539E-1,-7.900869E-2,-1.7101115E-1,2.0558113E-2,-5.9712715E-2,-2.2003739E-1,1.4919174E-1,-2.3324886E-2],"categories":[],"categories_nodes":[],"categories_segments":[],"categories_sizes":[],"default_left":[0,0,0,0,0,0,0,0,0,0,0,0,0,0,0,0,0,0,0,0,0,0,0,0,0,0,0,0,0,0,0,0,0,0,0,0,0],"id":9,"left_children":[1,-1,3,5,7,9,11,13,15,17,19,21,-1,-1,23,-1,25,-1,-1,27,29,-1,31,-1,-1,33,35,-1,-1,-1,-1,-1,-1,-1,-1,-1,-1],"loss_changes":[3.1823784E1,0E0,2.3506975E1,9.960825E0,1.1881989E1,3.5934398E0,6.473503E-1,8.6331177E-1,1.3967601E1,2.6378977E-1,2.5753179E0,1.6222225E0,0E0,0E0,6.550309E0,0E0,5.3740306E0,0E0,0E0,4.3727303E-1,7.515842E-1,0E0,3.9778227E-1,0E0,0E0,1.2239666E0,3.5832465E-1,0E0,0E0,0E0,0E0,0E0,0E0,0E0,0E0,0E0,0E0],"parents":[2147483647,0,0,2,2,3,3,4,4,5,5,6,6,7,7,8,8,9,9,10,10,11,11,14,14,16,16,19,19,20,20,22,22,25,25,26,26],"right_children":[2,-1,4,6,8,10,12,14,16,18,20,22,-1,-1,24,-1,26,-1,-1,28,30,-1,32,-1,-1,34,36,-1,-1,-1,-1,-1,-1,-1,-1,-1,-1],"split_conditions":[4E0,1.714612E-1,2.064172E7,1.0459884E7,2.8809892E7,6.677584E6,1.5685528E7,2.286419E7,3.393464E7,6.7918575E-1,6.9253245E6,1.4718976E7,1.7089282E-1,-2.0329677E-1,2.848596E7,1.7590725E-1,3.9593944E7,1.5376708E-1,-6.67842E-3,1.004153E7,1.6941186E7,1.527602E-1,1.5442495E-1,1.6910732E-1,-2.0237963E-1,3.8251164E7,3.831908E-1,-5.8060277E-2,-2.017089E-1,1.4571539E-1,-7.900869E-2,-1.7101115E-1,2.0558113E-2,-5.9712715E-2,-2.2003739E-1,1.4919174E-1,-2.3324886E-2],"split_indices":[4,0,0,1,1,0,1,1,0,3,2,0,0,0,0,0,1,0,0,0,0,0,3,0,0,0,3,0,0,0,0,0,0,0,0,0,0],"split_type":[0,0,0,0,0,0,0,0,0,0,0,0,0,0,0,0,0,0,0,0,0,0,0,0,0,0,0,0,0,0,0,0,0,0,0,0,0],"sum_hessian":[3.03303E2,7.799925E1,2.2530376E2,7.8624115E1,1.4667964E2,2.607945E1,5.2544662E1,9.260626E1,5.407338E1,5.6512394E0,2.0428211E1,8.232493E0,4.4312172E1,6.926745E1,2.3338816E1,2.133824E1,3.273514E1,4.6456237E0,1.0056157E0,1.6333122E1,4.095088E0,5.48905E0,2.743443E0,4.631938E0,1.8706879E1,2.7027756E1,5.707385E0,3.3949614E0,1.2938161E1,2.8085139E0,1.2865742E0,1.4374566E0,1.3059864E0,6.5157385E0,2.0512016E1,4.6714587E0,1.0359266E0],"tree_param":{"num_deleted":"0","num_feature":"6","num_nodes":"37","size_leaf_vector":"1"}},{"base_weights":[-1.179232E-2,-1.6121706E-1,1.2685765E-1,-3.7659064E-1,2.194171E-1,5.467389E-2,-5.056554E-1,2.7820757E-1,-3.1129783E-1,3.3679977E-1,-1.2269733E-1,-4.06648E-2,-1.580586E-1,5.569404E-1,1.3357154E-1,-1.5331917E-1,2.0687838E-1,-2.1087337E-2,5.090738E-1,1.3774092E-1,6.362935E-1,-8.602723E-2,3.1197E-1,1.7719181E-1,-1.1124128E-1,1.0244069E-2,2.0814598E-1,1.5320799E-1,-1.363035E-1,2.0228325E-1,6.358208E-2,-9.0770796E-2,4.6397608E-2,1.2014084E-1,-3.118157E-2],"categories":[],"categories_nodes":[],"categories_segments":[],"categories_sizes":[],"default_left":[0,0,0,0,0,0,0,0,0,0,0,0,0,0,0,0,0,0,0,0,0,0,0,0,0,0,0,0,0,0,0,0,0,0,0],"id":10,"left_children":[1,-1,3,5,7,9,11,13,15,17,-1,-1,-1,19,21,-1,23,-1,25,27,29,31,33,-1,-1,-1,-1,-1,-1,-1,-1,-1,-1,-1,-1],"loss_changes":[1.8745777E1,0E0,9.570659E0,1.8081698E0,5.472576E0,1.2196426E0,1.22588634E-1,6.212085E0,1.9366064E0,4.3485183E-1,0E0,0E0,0E0,1.6739483E0,4.100288E0,0E0,1.4678669E0,0E0,3.3776772E-1,2.3751383E0,5.70364E-1,2.5167484E0,2.1612678E0,0E0,0E0,0E0,0E0,0E0,0E0,0E0,0E0,0E0,0E0,0E0,0E0],"parents":[2147483647,0,0,2,2,3,3,4,4,5,5,6,6,7,7,8,8,9,9,13,13,14,14,16,16,18,18,19,19,20,20,21,21,22,22],"right_children":[2,-1,4,6,8,10,12,14,16,18,-1,-1,-1,20,22,-1,24,-1,26,28,30,32,34,-1,-1,-1,-1,-1,-1,-1,-1,-1,-1,-1,-1],"split_conditions":[4E0,-1.6121706E-1,1.2624113E7,5.2020785E6,3.78712E7,4.2203425E6,9E0,1.067766E-1,4.2078108E7,3.5686318E6,-1.2269733E-1,-4.06648E-2,-1.580586E-1,2.3638284E7,4.875712E6,-1.5331917E-1,4.163563E7,-2.1087337E-2,6.9798735E6,1.6080574E7,3.326989E7,2.368263E7,4.370157E7,1.7719181E-1,-1.1124128E-1,1.0244069E-2,2.0814598E-1,1.5320799E-1,-1.363035E-1,2.0228325E-1,6.358208E-2,-9.0770796E-2,4.6397608E-2,1.2014084E-1,-3.118157E-2],"split_indices":[4,0,0,1,1,2,5,3,0,1,0,0,0,0,2,0,1,0,0,1,1,1,0,0,0,0,0,0,0,0,0,0,0,0,0],"split_type":[0,0,0,0,0,0,0,0,0,0,0,0,0,0,0,0,0,0,0,0,0,0,0,0,0,0,0,0,0,0,0,0,0,0,0],"sum_hessian":[2.5529955E2,5.268897E1,2.0261057E2,3.0988678E1,1.7162189E2,7.270613E0,2.3718065E1,1.5493465E2,1.6687248E1,4.690315E0,2.5802984E0,1.6859527E0,2.2032112E1,5.195665E1,1.02978E2,1.205396E1,4.6332884E0,1.5706892E0,3.1196256E0,8.705231E0,4.325142E1,4.6390995E1,5.6587E1,2.7704313E0,1.8628571E0,1.2054936E0,1.914132E0,5.4253154E0,3.279915E0,3.915747E1,4.0939503E0,2.4284988E1,2.2106007E1,4.66893E1,9.897701E0],"tree_param":{"num_deleted":"0","num_feature":"6","num_nodes":"35","size_leaf_vector":"1"}},{"base_weights":[-2.9402984E-2,-1.5478739E-1,1.039469E-1,-1.5114881E-1,2.3970217E-1,4.0822044E-1,-3.216856E-1,6.5996304E-2,6.3504386E-1,-1.5504302E-1,3.271082E-1,4.4744924E-1,-4.4494122E-1,6.818423E-1,-1.1793993E-1,2.5015414E-1,-2.1879065E-1,1.9279976E-1,-1.2559564E-1,-1.518196E-1,2.716004E-2,1.3621691E-1,2.5232637E-1,-1.1990917E-1,3.6530744E-2],"categories":[],"categories_nodes":[],"categories_segments":[],"categories_sizes":[],"default_left":[0,0,0,0,0,0,0,0,0,0,0,0,0,0,0,0,0,0,0,0,0,0,0,0,0],"id":11,"left_children":[1,-1,3,-1,5,7,9,11,13,-1,15,17,19,21,-1,-1,23,-1,-1,-1,-1,-1,-1,-1,-1],"loss_changes":[1.028672E1,0E0,1.0403292E1,0E0,9.832685E0,6.11464E0,3.237094E0,6.5780993E0,2.5575657E0,0E0,1.9019104E0,3.521776E0,5.201392E-1,1.2822132E0,0E0,0E0,2.818284E-1,0E0,0E0,0E0,0E0,0E0,0E0,0E0,0E0],"parents":[2147483647,0,0,2,2,4,4,5,5,6,6,7,7,8,8,10,10,11,11,12,12,13,13,16,16],"right_children":[2,-1,4,-1,6,8,10,12,14,-1,16,18,20,22,-1,-1,24,-1,-1,-1,-1,-1,-1,-1,-1],"split_conditions":[9.729079E-2,-1.5478739E-1,4E0,-1.5114881E-1,2.8615702E7,2.9149182E7,4.6121252E7,4.304274E6,9.024533E6,-1.5504302E-1,3.250448E7,1.6219688E7,9E1,3.831936E7,-1.1793993E-1,2.5015414E-1,4.8524064E7,1.9279976E-1,-1.2559564E-1,-1.518196E-1,2.716004E-2,1.3621691E-1,2.5232637E-1,-1.1990917E-1,3.6530744E-2],"split_indices":[3,0,4,0,1,0,0,2,2,0,1,1,5,0,0,0,0,0,0,0,0,0,0,0,0],"split_type":[0,0,0,0,0,0,0,0,0,0,0,0,0,0,0,0,0,0,0,0,0,0,0,0,0],"sum_hessian":[1.5671832E2,3.309502E1,1.23623314E2,2.2076323E1,1.0154699E2,7.8312004E1,2.3234985E1,3.172989E1,4.658211E1,1.8019161E1,5.2158256E0,1.823807E1,1.349182E1,4.4876366E1,1.705746E0,2.4313822E0,2.7844431E0,1.5093924E1,3.1441462E0,1.215882E1,1.333E0,2.0049181E1,2.4827187E1,1.7050611E0,1.0793821E0],"tree_param":{"num_deleted":"0","num_feature":"6","num_nodes":"25","size_leaf_vector":"1"}},{"base_weights":[2.0354256E-2,1.6431497E-1,-1.4723729E-1,2.4932468E-1,-3.5557026E-1,-1.4865361E-1,5.320986E-1,-5.605185E-1,-1.9066436E-2,4.2732167E-1,-3.2089117E-1,1.9617966E-1,1.6544643E-1,-1.8729281E-1,-3.5458958E-1,1.689903E-1,-3.8852972E-1,1.2535454E-2,1.491749E-1,-4.8094895E-1,3.4066096E-1,1.0458006E-1,-2.590258E-2,1.6078377E-1,-1.8486288E-1,-5.4246E-1,3.5904807E-1,-4.5019217E-2,-1.8056093E-1,-1.0084886E-2,1.4174074E-1,-4.5615256E-2,-1.9840977E-1,-1.5970137E-2,1.377999E-1],"categories":[],"categories_nodes":[],"categories_segments":[],"categories_sizes":[],"default_left":[0,0,0,0,0,0,0,0,0,0,0,0,0,0,0,0,0,0,0,0,0,0,0,0,0,0,0,0,0,0,0,0,0,0,0],"id":12,"left_children":[1,-1,3,5,7,9,11,13,15,17,19,21,-1,-1,23,-1,25,-1,-1,27,29,-1,-1,-1,-1,31,33,-1,-1,-1,-1,-1,-1,-1,-1],"loss_changes":[2.2599876E1,0E0,1.6127798E1,7.669947E0,8.795372E0,2.9942095E0,1.500721E-1,8.2061195E-1,1.08408E1,1.695205E-1,2.5718446E0,1.9011585E-1,0E0,0E0,5.2402463E0,0E0,3.7386594E0,0E0,0E0,6.589141E-1,2.6331693E-1,0E0,0E0,0E0,0E0,1.1034513E0,2.6674294E-1,0E0,0E0,0E0,0E0,0E0,0E0,0E0,0E0],"parents":[2147483647,0,0,2,2,3,3,4,4,5,5,6,6,7,7,8,8,9,9,10,10,11,11,14,14,16,16,19,19,20,20,25,25,26,26],"right_children":[2,-1,4,6,8,10,12,14,16,18,20,22,-1,-1,24,-1,26,-1,-1,28,30,-1,-1,-1,-1,32,34,-1,-1,-1,-1,-1,-1,-1,-1],"split_conditions":[4E0,1.6431497E-1,2.064172E7,1.3530581E7,2.8809892E7,6.677584E6,4.8142838E5,2.286419E7,3.393464E7,1.8640364E6,7.3082095E6,1.4693389E5,1.6544643E-1,-1.8729281E-1,2.848596E7,1.689903E-1,3.9593944E7,1.2535454E-2,1.491749E-1,1.1051842E7,4.400102E6,1.0458006E-1,-2.590258E-2,1.6078377E-1,-1.8486288E-1,3.8251164E7,1.8E1,-4.5019217E-2,-1.8056093E-1,-1.0084886E-2,1.4174074E-1,-4.5615256E-2,-1.9840977E-1,-1.5970137E-2,1.377999E-1],"split_indices":[4,0,0,1,1,0,2,1,0,1,2,2,0,0,0,0,1,0,0,0,1,0,0,0,0,0,5,0,0,0,0,0,0,0,0],"split_type":[0,0,0,0,0,0,0,0,0,0,0,0,0,0,0,0,0,0,0,0,0,0,0,0,0,0,0,0,0,0,0,0,0,0,0],"sum_hessian":[2.5379587E2,6.0657146E1,1.9313873E2,6.645149E1,1.2668723E2,2.7799938E1,3.8651554E1,7.8320366E1,4.8366867E1,6.058583E0,2.1741356E1,2.7159612E0,3.5935593E1,5.82458E1,2.0074566E1,1.857047E1,2.9796394E1,1.175452E0,4.883131E0,1.772574E1,4.0156155E0,1.6122584E0,1.1037028E0,4.320234E0,1.5754332E1,2.4936262E1,4.860133E0,5.343881E0,1.2381859E1,1.2398751E0,2.7757404E0,6.353679E0,1.8582582E1,1.0426917E0,3.8174415E0],"tree_param":{"num_deleted":"0","num_feature":"6","num_nodes":"35","size_leaf_vector":"1"}},{"base_weights":[-6.7237564E-3,-1.565004E-1,1.08904235E-1,-3.4264144E-1,1.8323757E-1,5.4498553E-2,-4.8383123E-1,4.1377956E-1,8.322945E-2,2.9973397E-1,-1.1535062E-1,-3.484775E-2,-1.5231541E-1,5.2517587E-1,-1.9417782E-1,-8.250876E-2,2.1120512E-1,-2.1446547E-2,4.574207E-1,1.8255313E-1,5.924469E-1,-1.3782911E-1,2.9223868E-1,-2.673191E-1,1.3513137E-1,3.7216792E-1,-8.310124E-3,1.1892411E-2,1.8424173E-1,1.22941636E-1,-1.14563115E-1,1.829373E-1,3.7611082E-2,1.3199401E-1,-3.117474E-3,-2.9926125E-2,-1.5479681E-1,-1.5641235E-1,1.4091255E-1,1.5558097E-1,-9.915752E-2,-1.6557741E-1,1.1412512E-1],"categories":[],"categories_nodes":[],"categories_segments":[],"categories_sizes":[],"default_left":[0,0,0,0,0,0,0,0,0,0,0,0,0,0,0,0,0,0,0,0,0,0,0,0,0,0,0,0,0,0,0,0,0,0,0,0,0,0,0,0,0,0,0],"id":13,"left_children":[1,-1,3,5,7,9,11,13,15,17,-1,-1,-1,19,21,23,25,-1,27,29,31,-1,33,35,37,39,41,-1,-1,-1,-1,-1,-1,-1,-1,-1,-1,-1,-1,-1,-1,-1,-1],"loss_changes":[1.3388012E1,0E0,6.227561E0,1.5016224E0,3.6166615E0,9.548954E-1,1.1237717E-1,3.32967E0,2.3865943E0,3.5850662E-1,0E0,0E0,0E0,8.2644176E-1,1.1806939E0,2.0226016E0,2.24009E0,0E0,2.4027455E-1,1.1954908E0,1.9451904E-1,0E0,1.5986463E-1,1.0754119E0,5.3723745E0,3.932222E0,6.0765424E0,0E0,0E0,0E0,0E0,0E0,0E0,0E0,0E0,0E0,0E0,0E0,0E0,0E0,0E0,0E0,0E0],"parents":[2147483647,0,0,2,2,3,3,4,4,5,5,6,6,7,7,8,8,9,9,13,13,14,14,15,15,16,16,18,18,19,19,20,20,22,22,23,23,24,24,25,25,26,26],"right_children":[2,-1,4,6,8,10,12,14,16,18,-1,-1,-1,20,22,24,26,-1,28,30,32,-1,34,36,38,40,42,-1,-1,-1,-1,-1,-1,-1,-1,-1,-1,-1,-1,-1,-1,-1,-1],"split_conditions":[4E0,-1.565004E-1,1.2624113E7,5.2020785E6,8.1616044E-2,4.2203425E6,9E0,3.4332896E7,4.769001E6,3.5686318E6,-1.1535062E-1,-3.484775E-2,-1.5231541E-1,2.3638284E7,4.068385E7,3.3586796E7,2.4245314E7,-2.1446547E-2,6.9798735E6,1.6080574E7,3.326989E7,-1.3782911E-1,-1.4965047E-1,2.4245314E7,2.4629556E7,3.831936E7,3.3463592E7,1.1892411E-2,1.8424173E-1,1.22941636E-1,-1.14563115E-1,1.829373E-1,3.7611082E-2,1.3199401E-1,-3.117474E-3,-2.9926125E-2,-1.5479681E-1,-1.5641235E-1,1.4091255E-1,1.5558097E-1,-9.915752E-2,-1.6557741E-1,1.1412512E-1],"split_indices":[4,0,0,1,3,2,5,1,2,1,0,0,0,0,0,0,1,0,0,1,1,0,3,1,1,0,0,0,0,0,0,0,0,0,0,0,0,0,0,0,0,0,0],"split_type":[0,0,0,0,0,0,0,0,0,0,0,0,0,0,0,0,0,0,0,0,0,0,0,0,0,0,0,0,0,0,0,0,0,0,0,0,0,0,0,0,0,0,0],"sum_hessian":[2.2289587E2,4.022848E1,1.8266739E2,2.5309944E1,1.5735745E2,6.799172E0,1.851077E1,4.6659344E1,1.10698105E2,4.5658326E0,2.233339E0,1.4869013E0,1.702387E1,3.9548935E1,7.110407E0,4.8387672E1,6.231043E1,1.5242116E0,3.0416212E0,7.1001887E0,3.244875E1,4.6371546E0,2.4732523E0,2.6044E1,2.2343674E1,3.554854E1,2.6761892E1,1.1715238E0,1.8700974E0,5.2573924E0,1.8427964E0,3.0992355E1,1.456393E0,1.3569487E0,1.1163036E0,1.6396463E1,9.647536E0,7.3544645E0,1.4989209E1,2.963486E1,5.913678E0,1.0982965E1,1.5778927E1],"tree_param":{"num_deleted":"0","num_feature":"6","num_nodes":"43","size_leaf_vector":"1"}},{"base_weights":[-2.68042E-2,-1.516051E-1,8.95914E-2,-1.4721422E-1,1.982897E-1,3.335231E-1,-3.0088693E-1,1.2189199E-1,6.0124385E-1,-1.5198514E-1,2.5795373E-1,4.1117093E-1,-3.4860507E-1,6.5272844E-1,-1.0794002E-1,2.1016996E-1,-2.2295703E-1,1.6642159E-1,-1.1048007E-1,-1.4691938E-1,-2.4948323E-2,2.0505571E-1,1.6727524E-2,-1.19232945E-1,3.1314485E-2],"categories":[],"categories_nodes":[],"categories_segments":[],"categories_sizes":[],"default_left":[0,0,0,0,0,0,0,0,0,0,0,0,0,0,0,0,0,0,0,0,0,0,0,0,0],"id":14,"left_children":[1,-1,3,-1,5,7,9,11,13,-1,15,17,19,21,-1,-1,23,-1,-1,-1,-1,-1,-1,-1,-1],"loss_changes":[7.6940985E0,0E0,7.1181602E0,0E0,6.4766846E0,4.1645184E0,2.5060282E0,5.9997106E0,1.8561707E0,0E0,1.4805784E0,3.237341E0,5.932615E-1,5.40102E-1,0E0,0E0,2.5513026E-1,0E0,0E0,0E0,0E0,0E0,0E0,0E0,0E0],"parents":[2147483647,0,0,2,2,4,4,5,5,6,6,7,7,8,8,10,10,11,11,12,12,13,13,16,16],"right_children":[2,-1,4,-1,6,8,10,12,14,-1,16,18,20,22,-1,-1,24,-1,-1,-1,-1,-1,-1,-1,-1],"split_conditions":[9.729079E-2,-1.516051E-1,4E0,-1.4721422E-1,2.8615702E7,3.4276012E7,4.6121252E7,4.304274E6,9.024533E6,-1.5198514E-1,3.250448E7,1.9434454E7,2.7332384E7,9.2E1,-1.0794002E-1,2.1016996E-1,8E0,1.6642159E-1,-1.1048007E-1,-1.4691938E-1,-2.4948323E-2,2.0505571E-1,1.6727524E-2,-1.19232945E-1,3.1314485E-2],"split_indices":[3,0,4,0,1,0,0,2,2,0,1,1,0,5,0,0,4,0,0,0,0,0,0,0,0],"split_type":[0,0,0,0,0,0,0,0,0,0,0,0,0,0,0,0,0,0,0,0,0,0,0,0,0],"sum_hessian":[1.3632016E2,2.6016182E1,1.1030397E2,1.6847279E1,9.3456696E1,7.37962E1,1.9660492E1,4.202839E1,3.1767813E1,1.4438565E1,5.221927E0,2.6104483E1,1.5923906E1,3.0456997E1,1.3108155E0,2.4813936E0,2.7405336E0,2.2287537E1,3.816945E0,9.844839E0,6.0790668E0,2.8825266E1,1.6317314E0,1.647942E0,1.0925918E0],"tree_param":{"num_deleted":"0","num_feature":"6","num_nodes":"25","size_leaf_vector":"1"}},{"base_weights":[1.5395244E-2,1.5898588E-1,-1.3466083E-1,2.305945E-1,-3.2551914E-1,-1.7562912E-1,4.741355E-1,-4.6063483E-1,1.3099554E-1,3.716794E-1,-3.2971358E-1,2.0486206E-1,1.585319E-1,-2.916545E-1,-1.8049574E-1,1.7228901E-1,-3.0737677E-1,9.654058E-3,1.3550076E-1,-4.8457602E-1,2.9001668E-1,1.3939957E-1,-2.2614667E-1,-5.825763E-1,3.3481923E-1,-5.730061E-1,3.0786365E-1,-3.6068317E-2,-1.7451827E-1,-5.9153168E-3,1.2866685E-1,-1.3630553E-1,3.1900153E-2,-7.674287E-2,-1.8051727E-1,1.4763817E-1,-4.6934776E-2,-6.469619E-2,-1.850762E-1,1.250672E-1,-1.1750147E-2],"categories":[],"categories_nodes":[],"categories_segments":[],"categories_sizes":[],"default_left":[0,0,0,0,0,0,0,0,0,0,0,0,0,0,0,0,0,0,0,0,0,0,0,0,0,0,0,0,0,0,0,0,0,0,0,0,0,0,0,0,0],"id":15,"left_children":[1,-1,3,5,7,9,11,13,15,17,19,21,-1,23,-1,-1,25,-1,-1,27,29,-1,31,33,35,37,39,-1,-1,-1,-1,-1,-1,-1,-1,-1,-1,-1,-1,-1,-1],"loss_changes":[1.631277E1,0E0,1.1483588E1,5.697749E0,6.715949E0,1.9779062E0,4.1450596E-1,1.8137989E0,5.116604E0,1.2948358E-1,1.8390106E0,9.5978916E-1,0E0,7.469935E0,0E0,0E0,2.3716917E0,0E0,0E0,4.4450736E-1,1.8755686E-1,0E0,3.171509E-1,1.8906593E-2,1.1042873E0,1.9677162E-2,1.9420332E-1,0E0,0E0,0E0,0E0,0E0,0E0,0E0,0E0,0E0,0E0,0E0,0E0,0E0,0E0],"parents":[2147483647,0,0,2,2,3,3,4,4,5,5,6,6,7,7,8,8,9,9,10,10,11,11,13,13,16,16,19,19,20,20,22,22,23,23,24,24,25,25,26,26],"right_children":[2,-1,4,6,8,10,12,14,16,18,20,22,-1,24,-1,-1,26,-1,-1,28,30,-1,32,34,36,38,40,-1,-1,-1,-1,-1,-1,-1,-1,-1,-1,-1,-1,-1,-1],"split_conditions":[4E0,1.5898588E-1,2.064172E7,1.0459884E7,3.4109532E7,6.677584E6,1.5685528E7,3.29196E7,3.870515E7,1.8640364E6,7.3082095E6,1.4718976E7,1.585319E-1,2.1919814E7,-1.8049574E-1,1.7228901E-1,3.9593944E7,9.654058E-3,1.3550076E-1,1.004153E7,4.400102E6,1.3939957E-1,1.5442495E-1,2.145314E7,3.1667136E7,2.933086E6,4.6871584E7,-3.6068317E-2,-1.7451827E-1,-5.9153168E-3,1.2866685E-1,-1.3630553E-1,3.1900153E-2,-7.674287E-2,-1.8051727E-1,1.4763817E-1,-4.6934776E-2,-6.469619E-2,-1.850762E-1,1.250672E-1,-1.1750147E-2],"split_indices":[4,0,0,1,1,0,1,0,0,1,2,0,0,1,0,0,1,0,0,0,1,0,3,0,0,2,0,0,0,0,0,0,0,0,0,0,0,0,0,0,0],"split_type":[0,0,0,0,0,0,0,0,0,0,0,0,0,0,0,0,0,0,0,0,0,0,0,0,0,0,0,0,0,0,0,0,0,0,0,0,0,0,0,0,0],"sum_hessian":[2.093468E2,4.6694584E1,1.6265222E2,5.575082E1,1.06901405E2,2.1000715E1,3.4750107E1,8.248045E1,2.4420952E1,4.3032775E0,1.6697437E1,6.6328487E0,2.8117256E1,3.891596E1,4.356449E1,1.1988049E1,1.2432903E1,1.0879624E0,3.215315E0,1.3533643E1,3.1637945E0,4.089622E0,2.543227E0,2.6622894E1,1.2293065E1,8.731665E0,3.7012389E0,3.3200307E0,1.0213613E1,1.2450091E0,1.9187853E0,1.2907451E0,1.2524819E0,2.2685719E0,2.4354322E1,9.310138E0,2.9829273E0,1.6024644E0,7.1292E0,2.6632237E0,1.0380152E0],"tree_param":{"num_deleted":"0","num_feature":"6","num_nodes":"41","size_leaf_vector":"1"}},{"base_weights":[-3.4492565E-3,-1.5262341E-1,9.46456E-2,-3.7069654E-1,1.490606E-1,9.7228155E-2,-1.479282E-1,3.5769525E-1,6.2308364E-2,-9.719739E-2,1.1653509E-1,4.6390066E-1,-1.6179954E-1,-7.224872E-2,1.7205183E-1,2.4484654E-1,1.7817217E-1,-1.3627635E-1,3.0911118E-1,-2.2144043E-1,1.0877965E-1,3.028469E-1,-7.696605E-3,1.2913163E-1,-1.3543297E-1,1.3256209E-1,-6.335608E-3,-2.2436136E-2,-1.4695817E-1,-1.4840738E-1,1.13713875E-1,1.4087994E-1,-2.993102E-2,-1.5546408E-1,8.894946E-2],"categories":[],"categories_nodes":[],"categories_segments":[],"categories_sizes":[],"default_left":[0,0,0,0,0,0,0,0,0,0,0,0,0,0,0,0,0,0,0,0,0,0,0,0,0,0,0,0,0,0,0,0,0,0,0],"id":16,"left_children":[1,-1,3,5,7,9,-1,11,13,-1,-1,15,17,19,21,23,-1,-1,25,27,29,31,33,-1,-1,-1,-1,-1,-1,-1,-1,-1,-1,-1,-1],"loss_changes":[9.618765E0,0E0,4.1709695E0,1.0389545E0,2.624484E0,6.684143E-1,0E0,2.4329739E0,1.555522E0,0E0,0E0,8.724389E-1,1.2415518E0,1.3109127E0,1.3624313E0,2.1344054E0,0E0,0E0,1.6971645E-1,1.0045332E0,3.8077772E0,2.2966514E0,4.089046E0,0E0,0E0,0E0,0E0,0E0,0E0,0E0,0E0,0E0,0E0,0E0,0E0],"parents":[2147483647,0,0,2,2,3,3,4,4,5,5,7,7,8,8,11,11,12,12,13,13,14,14,15,15,18,18,19,19,20,20,21,21,22,22],"right_children":[2,-1,4,6,8,10,-1,12,14,-1,-1,16,18,20,22,24,-1,-1,26,28,30,32,34,-1,-1,-1,-1,-1,-1,-1,-1,-1,-1,-1,-1],"split_conditions":[4E0,-1.5262341E-1,1.004153E7,4.1659565E6,8.1616044E-2,6.548664E6,-1.479282E-1,3.4109532E7,4.875712E6,-9.719739E-2,1.1653509E-1,3.02453E7,4.068385E7,3.3586796E7,2.4245314E7,2.0889316E7,1.7817217E-1,-1.3627635E-1,3.8388412E7,2.4245314E7,2.4629556E7,3.3763516E7,3.3463592E7,1.2913163E-1,-1.3543297E-1,1.3256209E-1,-6.335608E-3,-2.2436136E-2,-1.4695817E-1,-1.4840738E-1,1.13713875E-1,1.4087994E-1,-2.993102E-2,-1.5546408E-1,8.894946E-2],"split_indices":[4,0,0,1,3,0,0,1,2,0,0,0,0,0,1,1,0,0,1,1,1,0,0,0,0,0,0,0,0,0,0,0,0,0,0],"split_type":[0,0,0,0,0,0,0,0,0,0,0,0,0,0,0,0,0,0,0,0,0,0,0,0,0,0,0,0,0,0,0,0,0,0,0],"sum_hessian":[1.9208485E2,3.05472E1,1.6153764E2,1.6303368E1,1.4523428E2,3.4229784E0,1.288039E1,4.173664E1,1.03497635E2,1.3532027E0,2.0697756E0,3.474118E1,6.995464E0,4.6646168E1,5.685147E1,1.4013133E1,2.0728045E1,4.3372335E0,2.6582303E0,2.5449291E1,2.1196875E1,3.2510303E1,2.4341167E1,1.1365525E1,2.647608E0,1.6548511E0,1.0033793E0,1.7284433E1,8.164859E0,6.2998123E0,1.4897063E1,2.287128E1,9.639024E0,8.825744E0,1.5515423E1],"tree_param":{"num_deleted":"0","num_feature":"6","num_nodes":"35","size_leaf_vector":"1"}},{"base_weights":[-2.1655768E-2,-1.4858909E-1,8.149613E-2,-1.4326744E-1,1.70799E-1,2.571068E-1,-4.198007E-1,9.649774E-2,5.572199E-1,-1.4622714E-1,3.3389162E-2,2.3997691E-1,-5.144264E-1,6.1833656E-1,-1.05552986E-1,1.2083644E-1,-1.2062473E-1,3.5187848E-2,-1.8047507E-1,1.9365661E-1,1.48622E-2],"categories":[],"categories_nodes":[],"categories_segments":[],"categories_sizes":[],"default_left":[0,0,0,0,0,0,0,0,0,0,0,0,0,0,0,0,0,0,0,0,0],"id":17,"left_children":[1,-1,3,-1,5,7,9,11,13,-1,-1,15,17,19,-1,-1,-1,-1,-1,-1,-1],"loss_changes":[5.843752E0,0E0,4.994155E0,0E0,4.470358E0,3.5753026E0,4.5978987E-1,4.5284166E0,1.6641474E0,0E0,0E0,4.4873533E0,6.143093E-1,3.5087585E-1,0E0,0E0,0E0,0E0,0E0,0E0,0E0],"parents":[2147483647,0,0,2,2,4,4,5,5,6,6,7,7,8,8,11,11,12,12,13,13],"right_children":[2,-1,4,-1,6,8,10,12,14,-1,-1,16,18,20,-1,-1,-1,-1,-1,-1,-1],"split_conditions":[9.729079E-2,-1.4858909E-1,4E0,-1.4326744E-1,3.250448E7,3.831936E7,9.184264E6,2.3314638E7,9.024533E6,-1.4622714E-1,3.3389162E-2,6.2478385E6,1.7E1,3.1425324E7,-1.05552986E-1,1.2083644E-1,-1.2062473E-1,3.5187848E-2,-1.8047507E-1,1.9365661E-1,1.48622E-2],"split_indices":[3,0,4,0,1,0,2,1,2,0,0,2,5,1,0,0,0,0,0,0,0],"split_type":[0,0,0,0,0,0,0,0,0,0,0,0,0,0,0,0,0,0,0,0,0],"sum_hessian":[1.1778317E2,2.038411E1,9.739906E1,1.2816643E1,8.458242E1,7.429057E1,1.029185E1,4.925351E1,2.5037062E1,9.2023735E0,1.0894767E0,4.0377747E1,8.875764E0,2.375951E1,1.2775509E0,3.2507317E1,7.87043E0,1.0341836E0,7.84158E0,2.2546991E1,1.212519E0],"tree_param":{"num_deleted":"0","num_feature":"6","num_nodes":"21","size_leaf_vector":"1"}},{"base_weights":[1.1286059E-2,1.5476876E-1,-1.2331381E-1,2.2074908E-1,-3.0517477E-1,-9.055831E-2,4.9586025E-1,-4.358738E-1,1.2021211E-1,1.342576E-1,-2.1015438E-1,3.6774293E-2,1.5650143E-1,-2.732303E-1,-1.7245191E-1,1.6578E-1,-2.7043426E-1,-5.0673425E-1,8.821003E-2,-5.013531E-1,4.0548596E-1,-5.2672786E-1,2.9592535E-1,-3.8886994E-2,-1.6160035E-1,1.21685624E-1,-7.675845E-2,-1.636429E-1,-2.119726E-2,-1.8048828E-2,1.5507075E-1,-5.2104544E-2,-1.6889599E-1,1.2260879E-1,-1.0308509E-2],"categories":[],"categories_nodes":[],"categories_segments":[],"categories_sizes":[],"default_left":[0,0,0,0,0,0,0,0,0,0,0,0,0,0,0,0,0,0,0,0,0,0,0,0,0,0,0,0,0,0,0,0,0,0,0],"id":18,"left_children":[1,-1,3,5,7,9,11,13,15,-1,17,-1,-1,19,-1,-1,21,23,25,27,29,31,33,-1,-1,-1,-1,-1,-1,-1,-1,-1,-1,-1,-1],"loss_changes":[1.1846866E1,0E0,8.687347E0,4.174442E0,5.0864563E0,1.6041608E0,1.8415976E-1,1.4133072E0,3.8764303E0,0E0,1.803807E0,0E0,0E0,5.454914E0,0E0,0E0,1.9359529E0,5.2019358E-2,1.2790738E0,4.5238304E-1,5.024543E-1,1.4899969E-2,1.8019608E-1,0E0,0E0,0E0,0E0,0E0,0E0,0E0,0E0,0E0,0E0,0E0,0E0],"parents":[2147483647,0,0,2,2,3,3,4,4,5,5,6,6,7,7,8,8,10,10,13,13,16,16,17,17,18,18,19,19,20,20,21,21,22,22],"right_children":[2,-1,4,6,8,10,12,14,16,-1,18,-1,-1,20,-1,-1,22,24,26,28,30,32,34,-1,-1,-1,-1,-1,-1,-1,-1,-1,-1,-1,-1],"split_conditions":[4E0,1.5476876E-1,2.064172E7,1.3530581E7,3.4109532E7,5.473047E6,4.8142838E5,3.29196E7,3.870515E7,1.342576E-1,4.8407705E6,3.6774293E-2,1.5650143E-1,2.4245314E7,-1.7245191E-1,1.6578E-1,3.9593944E7,-4.8334827E-3,1.4718976E7,2.1919814E7,3.4727424E-3,3.9964124E7,2.74255E-1,-3.8886994E-2,-1.6160035E-1,1.21685624E-1,-7.675845E-2,-1.636429E-1,-2.119726E-2,-1.8048828E-2,1.5507075E-1,-5.2104544E-2,-1.6889599E-1,1.2260879E-1,-1.0308509E-2],"split_indices":[4,0,0,1,1,0,2,0,0,0,2,0,0,1,0,0,1,3,0,1,3,0,3,0,0,0,0,0,0,0,0,0,0,0,0],"split_type":[0,0,0,0,0,0,0,0,0,0,0,0,0,0,0,0,0,0,0,0,0,0,0,0,0,0,0,0,0,0,0,0,0,0,0],"sum_hessian":[1.7248613E2,3.5724297E1,1.3676184E2,4.7217392E1,8.954445E1,2.2466179E1,2.4751211E1,6.847961E1,2.1064838E1,3.5867574E0,1.8879423E1,1.9726092E0,2.2778603E1,3.2918495E1,3.5561115E1,9.801475E0,1.1263364E1,9.117791E0,9.761631E0,2.4833164E1,8.085333E0,7.8024936E0,3.4608705E0,1.1067746E0,8.011017E0,4.9845057E0,4.7771254E0,2.228377E1,2.549393E0,1.649889E0,6.435444E0,1.2659725E0,6.536521E0,2.4030097E0,1.0578609E0],"tree_param":{"num_deleted":"0","num_feature":"6","num_nodes":"35","size_leaf_vector":"1"}},{"base_weights":[-9.807387E-4,-1.4917153E-1,8.2629345E-2,-2.6895288E-1,1.383602E-1,-6.528467E-3,-1.4265577E-1,1.6729559E-1,-3.6188164E-1,2.731318E-1,-1.2821154E-1,3.8503647E-1,7.986214E-2,-1.3523836E-1,2.3706997E-2,-2.3541082E-2,4.0960425E-1,-5.2582208E-2,4.2213553E-1,-2.8410828E-2,1.6370276E-1,-6.632898E-3,1.6627577E-1,1.5363027E-1,5.7329632E-2,-1.4657994E-1,2.0504363E-2,6.373407E-2,-5.7043172E-2],"categories":[],"categories_nodes":[],"categories_segments":[],"categories_sizes":[],"default_left":[0,0,0,0,0,0,0,0,0,0,0,0,0,0,0,0,0,0,0,0,0,0,0,0,0,0,0,0,0],"id":19,"left_children":[1,-1,3,5,7,9,-1,11,13,15,-1,17,19,-1,-1,-1,21,-1,23,25,27,-1,-1,-1,-1,-1,-1,-1,-1],"loss_changes":[6.9419036E0,0E0,2.8429308E0,1.0773783E0,1.8591776E0,1.2692986E0,0E0,2.218571E0,3.143785E-1,3.4372395E-1,0E0,7.721977E-1,7.81349E-1,0E0,0E0,0E0,3.1440723E-1,0E0,5.6303215E-1,1.7339848E0,8.7466633E-1,0E0,0E0,0E0,0E0,0E0,0E0,0E0,0E0],"parents":[2147483647,0,0,2,2,3,3,4,4,5,5,7,7,8,8,9,9,11,11,12,12,16,16,18,18,19,19,20,20],"right_children":[2,-1,4,6,8,10,-1,12,14,16,-1,18,20,-1,-1,-1,22,-1,24,26,28,-1,-1,-1,-1,-1,-1,-1,-1],"split_conditions":[4E0,-1.4917153E-1,1.3022106E7,1.0459884E7,3.9593944E7,4.7128715E6,-1.4265577E-1,1.067766E-1,6.70527E-1,6.9798735E6,-1.2821154E-1,1.6941186E7,4.7554605E6,-1.3523836E-1,2.3706997E-2,-2.3541082E-2,3.5686318E6,-5.2582208E-2,2.7994202E7,7.7768125E6,4.6121252E7,-6.632898E-3,1.6627577E-1,1.5363027E-1,5.7329632E-2,-1.4657994E-1,2.0504363E-2,6.373407E-2,-5.7043172E-2],"split_indices":[4,0,0,1,1,2,0,3,3,0,0,0,2,0,0,0,1,0,1,1,0,0,0,0,0,0,0,0,0],"split_type":[0,0,0,0,0,0,0,0,0,0,0,0,0,0,0,0,0,0,0,0,0,0,0,0,0,0,0,0,0],"sum_hessian":[1.6531624E2,2.3123335E1,1.421929E2,1.8932142E1,1.2326076E2,8.793005E0,1.0139138E1,1.1715004E2,6.1107163E0,5.4934607E0,3.299544E0,3.2588684E1,8.456136E1,5.066563E0,1.0441532E0,1.6548871E0,3.8385735E0,1.7924637E0,3.0796219E1,3.7192093E1,4.7369267E1,1.1759651E0,2.6626086E0,2.128956E1,9.506658E0,5.757844E0,3.1434248E1,4.1985203E1,5.384065E0],"tree_param":{"num_deleted":"0","num_feature":"6","num_nodes":"29","size_leaf_vector":"1"}},{"base_weights":[-1.7361593E-2,-4.595202E-1,7.8396186E-2,-1.4546938E-1,-3.850977E-2,-2.6107106E-1,1.9739908E-1,3.6676472E-1,-3.8387603E-1,2.7678883E-1,-3.7659934E-1,1.5744844E-1,-1.5307584E-2,1.442538E-1,-4.8050556E-1,-1.2202393E-1,3.3461347E-1,-1.3990344E-1,3.948492E-2,1.2632266E-1,-8.248054E-2,-1.5254572E-1,-4.9727716E-2,3.7763995E-1,-1.2169982E-1,6.797032E-2,1.7858231E-1],"categories":[],"categories_nodes":[],"categories_segments":[],"categories_sizes":[],"default_left":[0,0,0,0,0,0,0,0,0,0,0,0,0,0,0,0,0,0,0,0,0,0,0,0,0,0,0],"id":20,"left_children":[1,3,5,-1,-1,7,9,11,13,15,17,-1,-1,19,21,-1,23,-1,-1,-1,-1,-1,-1,25,-1,-1,-1],"loss_changes":[4.413193E0,9.364176E-2,3.5189347E0,0E0,0E0,1.8917273E0,3.0262678E0,3.0589807E-1,1.0635812E0,2.3853831E0,4.360559E-1,0E0,0E0,5.546868E-1,6.2788725E-2,0E0,1.8418894E0,0E0,0E0,0E0,0E0,0E0,0E0,1.5295448E0,0E0,0E0,0E0],"parents":[2147483647,0,0,1,1,2,2,5,5,6,6,7,7,8,8,9,9,10,10,13,13,14,14,16,16,23,23],"right_children":[2,4,6,-1,-1,8,10,12,14,16,18,-1,-1,20,22,-1,24,-1,-1,-1,-1,-1,-1,26,-1,-1,-1],"split_conditions":[1.0980687E-1,9.729079E-2,2.1180204E7,-1.4546938E-1,-3.850977E-2,5.113538E5,3.250448E7,6.2002605E6,3.1818988E6,4E0,9.184264E6,1.5744844E-1,-1.5307584E-2,2.702477E6,1.9292156E7,-1.2202393E-1,9.024533E6,-1.3990344E-1,3.948492E-2,1.2632266E-1,-8.248054E-2,-1.5254572E-1,-4.9727716E-2,3.9000852E7,-1.2169982E-1,6.797032E-2,1.7858231E-1],"split_indices":[3,3,0,0,0,2,1,1,1,4,2,0,0,2,0,0,2,0,0,0,0,0,0,0,0,0,0],"split_type":[0,0,0,0,0,0,0,0,0,0,0,0,0,0,0,0,0,0,0,0,0,0,0,0,0,0,0],"sum_hessian":[1.02381096E2,1.754924E1,8.4831856E1,1.5868876E1,1.6803639E0,2.1709524E1,6.3122334E1,3.22668E0,1.8482843E1,5.5907543E1,7.214789E0,2.1551256E0,1.0715543E0,2.782454E0,1.570039E1,3.8900292E0,5.2017517E1,6.2019744E0,1.0128146E0,1.6730884E0,1.1093657E0,1.3853323E1,1.8470668E0,4.9623188E1,2.394326E0,3.0495562E1,1.9127628E1],"tree_param":{"num_deleted":"0","num_feature":"6","num_nodes":"27","size_leaf_vector":"1"}},{"base_weights":[6.586139E-3,1.5126778E-1,-1.133081E-1,1.844992E-1,-2.908848E-1,-7.872083E-2,1.5429921E-1,-4.990986E-1,-3.566465E-2,3.8000867E-1,-1.995314E-1,-1.6446532E-1,-3.0405188E-1,4.6368524E-1,-2.9240808E-1,1.4967992E-2,1.319804E-1,-3.6043978E-1,2.2636522E-1,1.2868871E-1,-1.5835246E-1,1.5551826E-1,3.5154004E-2,-4.0931135E-1,2.8779235E-1,-3.4806322E-2,-1.46364E-1,1.4033675E-1,-3.638194E-2,-1.414479E-2,-1.5975058E-1,1.1862475E-1,-1.0170251E-2],"categories":[],"categories_nodes":[],"categories_segments":[],"categories_sizes":[],"default_left":[0,0,0,0,0,0,0,0,0,0,0,0,0,0,0,0,0,0,0,0,0,0,0,0,0,0,0,0,0,0,0,0,0],"id":21,"left_children":[1,-1,3,5,7,9,-1,11,13,15,17,-1,19,21,23,-1,-1,25,27,-1,-1,-1,-1,29,31,-1,-1,-1,-1,-1,-1,-1,-1],"loss_changes":[8.727436E0,0E0,6.289782E0,3.9178529E0,3.9284415E0,1.5004206E0,0E0,2.2438622E-1,4.5511093E0,9.086782E-2,1.5209236E0,0E0,1.941798E0,1.6828775E-1,1.702202E0,0E0,0E0,4.3023205E-1,5.91643E-1,0E0,0E0,0E0,0E0,8.607185E-1,1.6935837E-1,0E0,0E0,0E0,0E0,0E0,0E0,0E0,0E0],"parents":[2147483647,0,0,2,2,3,3,4,4,5,5,7,7,8,8,9,9,10,10,12,12,13,13,14,14,17,17,18,18,23,23,24,24],"right_children":[2,-1,4,6,8,10,-1,12,14,16,18,-1,20,22,24,-1,-1,26,28,-1,-1,-1,-1,30,32,-1,-1,-1,-1,-1,-1,-1,-1],"split_conditions":[4E0,1.5126778E-1,2.1981024E7,1.8163086E7,2.7994202E7,6.860118E6,1.5429921E-1,2.3082314E7,3.393464E7,1.8E1,7.3082095E6,-1.6446532E-1,2.6758818E7,3.2521122E7,3.9593944E7,1.4967992E-2,1.319804E-1,1.2738533E7,1.6941186E7,1.2868871E-1,-1.5835246E-1,1.5551826E-1,3.5154004E-2,3.8251164E7,3.21449E-1,-3.4806322E-2,-1.46364E-1,1.4033675E-1,-3.638194E-2,-1.414479E-2,-1.5975058E-1,1.1862475E-1,-1.0170251E-2],"split_indices":[4,0,0,1,1,0,0,1,0,5,2,0,0,0,1,0,0,0,0,0,0,0,0,0,3,0,0,0,0,0,0,0,0],"split_type":[0,0,0,0,0,0,0,0,0,0,0,0,0,0,0,0,0,0,0,0,0,0,0,0,0,0,0,0,0,0,0,0,0],"sum_hessian":[1.443185E2,2.7397074E1,1.1692143E2,4.3660698E1,7.326073E1,2.4705751E1,1.8954947E1,3.9819557E1,3.344117E1,4.7028985E0,2.0002853E1,3.0362572E1,9.456985E0,1.1081779E1,2.2359392E1,1.0041122E0,3.6987865E0,1.46294E1,5.3734536E0,1.9974864E0,7.4594994E0,9.142263E0,1.9395152E0,1.8854897E1,3.504496E0,5.6683736E0,8.961026E0,2.9672036E0,2.4062502E0,5.1366477E0,1.3718248E1,2.454249E0,1.0502473E0],"tree_param":{"num_deleted":"0","num_feature":"6","num_nodes":"33","size_leaf_vector":"1"}},{"base_weights":[2.6316277E-3,-1.4582758E-1,7.257968E-2,-2.4773204E-1,1.1884359E-1,-6.9116578E-3,-1.3769728E-1,1.3934723E-1,-1.23489134E-1,2.3218481E-1,-1.1937496E-1,3.2750756E-1,7.082428E-2,-2.3094345E-2,3.575719E-1,3.8899314E-1,-4.54429E-2,-2.1456119E-2,1.4065404E-1,-7.612982E-3,1.4781085E-1,1.3096857E-1,-1.4622515E-3,-6.742255E-2,9.3397126E-2,-1.4009996E-1,1.9176329E-2,5.0707065E-2,-8.15269E-2],"categories":[],"categories_nodes":[],"categories_segments":[],"categories_sizes":[],"default_left":[0,0,0,0,0,0,0,0,0,0,0,0,0,0,0,0,0,0,0,0,0,0,0,0,0,0,0,0,0],"id":22,"left_children":[1,-1,3,5,7,9,-1,11,-1,13,-1,15,17,-1,19,21,23,25,27,-1,-1,-1,-1,-1,-1,-1,-1,-1,-1],"loss_changes":[5.044985E0,0E0,1.9420792E0,8.420352E-1,1.2913628E0,9.13097E-1,0E0,1.394803E0,0E0,2.631853E-1,0E0,6.845975E-1,5.307479E-1,0E0,2.4548239E-1,4.7187233E-1,3.90549E-1,1.404769E0,5.9291583E-1,0E0,0E0,0E0,0E0,0E0,0E0,0E0,0E0,0E0,0E0],"parents":[2147483647,0,0,2,2,3,3,4,4,5,5,7,7,9,9,11,11,12,12,14,14,15,15,16,16,17,17,18,18],"right_children":[2,-1,4,6,8,10,-1,12,-1,14,-1,16,18,-1,20,22,24,26,28,-1,-1,-1,-1,-1,-1,-1,-1,-1,-1],"split_conditions":[4E0,-1.4582758E-1,1.3022106E7,1.0459884E7,4.163563E7,4.7128715E6,-1.3769728E-1,1.067766E-1,-1.23489134E-1,6.9798735E6,-1.1937496E-1,8.824164E6,4.769001E6,-2.3094345E-2,3.5686318E6,3.4332896E7,3.8251164E7,7.7768125E6,4.836609E7,-7.612982E-3,1.4781085E-1,1.3096857E-1,-1.4622515E-3,-6.742255E-2,9.3397126E-2,-1.4009996E-1,1.9176329E-2,5.0707065E-2,-8.15269E-2],"split_indices":[4,0,0,1,1,2,0,3,0,0,0,2,2,0,1,1,0,1,0,0,0,0,0,0,0,0,0,0,0],"split_type":[0,0,0,0,0,0,0,0,0,0,0,0,0,0,0,0,0,0,0,0,0,0,0,0,0,0,0,0,0],"sum_hessian":[1.4554576E2,1.7478065E1,1.2806769E2,1.5613271E1,1.1245442E2,7.778752E0,7.834519E0,1.0897951E2,3.4749076E0,5.0791035E0,2.6996484E0,2.8083685E1,8.089583E1,1.5769303E0,3.5021732E0,2.4072083E1,4.011603E0,3.514468E1,4.5751144E1,1.125322E0,2.376851E0,2.138138E1,2.6907034E0,2.916119E0,1.0954838E0,4.93281E0,3.021187E1,4.335868E1,2.3924654E0],"tree_param":{"num_deleted":"0","num_feature":"6","num_nodes":"29","size_leaf_vector":"1"}},{"base_weights":[-1.4732939E-2,-1.4228944E-1,6.388475E-2,-1.3481006E-1,1.24873966E-1,1.869631E-1,-3.7568164E-1,6.212041E-2,4.761644E-1,-1.3834846E-1,3.1199398E-2,1.9380112E-1,-4.759248E-1,5.441733E-1,-9.639215E-2,9.5101684E-2,-9.2290625E-2,1.953547E-2,-1.6845019E-1,1.7611334E-1,2.2241924E-5],"categories":[],"categories_nodes":[],"categories_segments":[],"categories_sizes":[],"default_left":[0,0,0,0,0,0,0,0,0,0,0,0,0,0,0,0,0,0,0,0,0],"id":23,"left_children":[1,-1,3,-1,5,7,9,11,13,-1,-1,15,17,19,-1,-1,-1,-1,-1,-1,-1],"loss_changes":[3.3231335E0,0E0,2.519845E0,0E0,2.280881E0,2.2792425E0,3.8343012E-1,3.338336E0,1.2124524E0,0E0,0E0,2.4153972E0,4.670515E-1,4.1981554E-1,0E0,0E0,0E0,0E0,0E0,0E0,0E0],"parents":[2147483647,0,0,2,2,4,4,5,5,6,6,7,7,8,8,11,11,12,12,13,13],"right_children":[2,-1,4,-1,6,8,10,12,14,-1,-1,16,18,20,-1,-1,-1,-1,-1,-1,-1],"split_conditions":[9.729079E-2,-1.4228944E-1,4E0,-1.3481006E-1,3.250448E7,3.9000852E7,9.099431E6,2.3314638E7,9.024533E6,-1.3834846E-1,3.1199398E-2,6.2478385E6,1.8E1,3.1425324E7,-9.639215E-2,9.5101684E-2,-9.2290625E-2,1.953547E-2,-1.6845019E-1,1.7611334E-1,2.2241924E-5],"split_indices":[3,0,4,0,1,0,2,1,2,0,0,2,5,1,0,0,0,0,0,0,0],"split_type":[0,0,0,0,0,0,0,0,0,0,0,0,0,0,0,0,0,0,0,0,0],"sum_hessian":[9.013859E1,1.2432219E1,7.770637E1,7.5767393E0,7.012963E1,6.294802E1,7.181611E0,4.481642E1,1.8131596E1,6.128165E0,1.0534464E0,3.651868E1,8.297744E0,1.6999495E1,1.1321018E0,2.9610977E1,6.907702E0,1.16585E0,7.1318936E0,1.5684722E1,1.3147728E0],"tree_param":{"num_deleted":"0","num_feature":"6","num_nodes":"21","size_leaf_vector":"1"}},{"base_weights":[4.8422464E-3,1.4797564E-1,-9.9709675E-2,1.7739049E-1,-2.666254E-1,-6.188853E-2,1.515317E-1,-4.7840783E-1,-2.4900425E-2,3.6040178E-1,-1.710264E-1,-2.7004546E-1,-1.6023962E-1,3.4092513E-1,-3.510497E-1,1.87702E-2,1.2582764E-1,-3.202898E-1,2.1450736E-1,-1.5041907E-1,1.24853395E-1,6.698881E-2,1.6069523E-1,-4.8485443E-1,2.3709375E-1,-2.888397E-2,-1.3355461E-1,-5.1389348E-2,1.278763E-1,1.3939573E-1,-1.09426826E-1,-6.2437516E-2,-1.6390035E-1,-6.561399E-3,1.041144E-1],"categories":[],"categories_nodes":[],"categories_segments":[],"categories_sizes":[],"default_left":[0,0,0,0,0,0,0,0,0,0,0,0,0,0,0,0,0,0,0,0,0,0,0,0,0,0,0,0,0,0,0,0,0,0,0],"id":24,"left_children":[1,-1,3,5,7,9,-1,11,13,15,17,19,-1,21,23,-1,-1,25,27,-1,-1,29,-1,31,33,-1,-1,-1,-1,-1,-1,-1,-1,-1,-1],"loss_changes":[6.3374195E0,0E0,4.7771916E0,3.0928607E0,3.2756739E0,1.1427401E0,0E0,2.5255823E-1,3.8237238E0,6.410122E-2,1.1803914E0,1.674601E0,0E0,7.716993E-1,1.4453161E0,0E0,0E0,3.5798073E-1,5.624122E-1,0E0,0E0,1.445706E0,0E0,1.261859E-1,1.1592753E-1,0E0,0E0,0E0,0E0,0E0,0E0,0E0,0E0,0E0,0E0],"parents":[2147483647,0,0,2,2,3,3,4,4,5,5,7,7,8,8,9,9,10,10,11,11,13,13,14,14,17,17,18,18,21,21,23,23,24,24],"right_children":[2,-1,4,6,8,10,-1,12,14,16,18,20,-1,22,24,-1,-1,26,28,-1,-1,30,-1,32,34,-1,-1,-1,-1,-1,-1,-1,-1,-1,-1],"split_conditions":[4E0,1.4797564E-1,2.1981024E7,1.8163086E7,2.7994202E7,6.860118E6,1.515317E-1,2.6758818E7,3.7156948E7,1.9E1,7.3082095E6,2.1919814E7,-1.6023962E-1,3.1425324E7,3.9593944E7,1.87702E-2,1.2582764E-1,1.2738533E7,4.2E1,-1.5041907E-1,1.24853395E-1,3.2119588E7,1.6069523E-1,-9.073415E-3,3.8E1,-2.888397E-2,-1.3355461E-1,-5.1389348E-2,1.278763E-1,1.3939573E-1,-1.09426826E-1,-6.2437516E-2,-1.6390035E-1,-6.561399E-3,1.041144E-1],"split_indices":[4,0,0,1,1,0,0,0,0,5,2,1,0,1,1,0,0,0,5,0,0,0,0,3,5,0,0,0,0,0,0,0,0,0,0],"split_type":[0,0,0,0,0,0,0,0,0,0,0,0,0,0,0,0,0,0,0,0,0,0,0,0,0,0,0,0,0,0,0,0,0,0,0],"sum_hessian":[1.22143776E2,2.0881052E1,1.01262726E2,3.804339E1,6.321934E1,2.2457409E1,1.5585978E1,3.3174786E1,3.0044554E1,4.1392045E0,1.8318205E1,8.233697E0,2.494109E1,1.413958E1,1.5904973E1,1.0253432E0,3.1138613E0,1.332754E1,4.9906645E0,6.359134E0,1.8745623E0,6.4333215E0,7.706259E0,1.3100241E1,2.8047328E0,5.4046054E0,7.922935E0,1.8361697E0,3.154495E0,3.3091607E0,3.1241605E0,3.178527E0,9.921714E0,1.0746933E0,1.7300394E0],"tree_param":{"num_deleted":"0","num_feature":"6","num_nodes":"35","size_leaf_vector":"1"}},{"base_weights":[3.4728788E-3,-1.4234498E-1,6.160637E-2,-1.271611E-1,8.464327E-2,1.02444075E-1,-1.1957817E-1,2.6658505E-1,4.370725E-2,5.7654448E-2,3.7533098E-1,-6.367278E-3,1.5372665E-1,7.8332454E-2,-1.2083914E-1,1.318547E-1,1.5322606E-2,-2.8415268E-2,2.9491317E-2,1.7499832E-2,1.1629471E-1],"categories":[],"categories_nodes":[],"categories_segments":[],"categories_sizes":[],"default_left":[0,0,0,0,0,0,0,0,0,0,0,0,0,0,0,0,0,0,0,0,0],"id":25,"left_children":[1,-1,3,-1,5,7,-1,9,11,13,15,17,19,-1,-1,-1,-1,-1,-1,-1,-1],"loss_changes":[3.643514E0,0E0,1.3428082E0,0E0,1.0076823E0,1.0411615E0,0E0,6.277616E-1,4.50626E-1,1.1324468E0,3.650055E-1,5.368922E-1,5.479404E-1,0E0,0E0,0E0,0E0,0E0,0E0,0E0,0E0],"parents":[2147483647,0,0,2,2,4,4,5,5,7,7,8,8,9,9,10,10,11,11,12,12],"right_children":[2,-1,4,-1,6,8,-1,10,12,14,16,18,20,-1,-1,-1,-1,-1,-1,-1,-1],"split_conditions":[4E0,-1.4234498E-1,6.860118E6,-1.271611E-1,4.163563E7,1.067766E-1,-1.1957817E-1,2.7926916E7,8E0,2.0889316E7,3.4109532E7,4.8863164E-1,7.7E1,7.8332454E-2,-1.2083914E-1,1.318547E-1,1.5322606E-2,-2.8415268E-2,2.9491317E-2,1.7499832E-2,1.1629471E-1],"split_indices":[4,0,0,0,1,3,0,0,4,1,1,3,5,0,0,0,0,0,0,0,0],"split_type":[0,0,0,0,0,0,0,0,0,0,0,0,0,0,0,0,0,0,0,0,0],"sum_hessian":[1.2907913E2,1.3220682E1,1.1585845E2,4.460424E0,1.11398026E2,1.082003E2,3.1977246E0,2.758235E1,8.061795E1,9.9657E0,1.761665E1,5.6049538E1,2.4568413E1,7.2119713E0,2.7537289E0,1.4409006E1,3.207644E0,3.0446033E1,2.5603504E1,1.8339079E1,6.229335E0],"tree_param":{"num_deleted":"0","num_feature":"6","num_nodes":"21","size_leaf_vector":"1"}},{"base_weights":[-1.2940806E-2,-1.3890359E-1,5.5587076E-2,-1.7993444E-1,1.9031386E-1,9.7489625E-2,-4.0093556E-1,3.8747248E-1,-4.4648223E-2,3.5894117E-1,-1.351248E-1,-1.3645148E-1,-6.824096E-2,5.1603824E-1,-1.7094383E-1,-4.200865E-1,2.1505252E-1,-2.5278386E-2,4.525611E-1,6.0505018E-2,-8.7854005E-2,-7.948547E-2,5.737417E-1,-1.2496949E-1,5.172862E-2,-4.629199E-2,-1.6785277E-1,4.4953588E-1,-1.952708E-1,1.6360208E-1,2.3852346E-2,1.9060872E-2,1.8161774E-1,-1.0886374E-1,6.650796E-2,1.653739E-1,-7.647437E-3,-1.4472674E-3,-1.06591605E-1],"categories":[],"categories_nodes":[],"categories_segments":[],"categories_sizes":[],"default_left":[0,0,0,0,0,0,0,0,0,0,0,0,0,0,0,0,0,0,0,0,0,0,0,0,0,0,0,0,0,0,0,0,0,0,0,0,0,0,0],"id":26,"left_children":[1,-1,3,5,7,9,11,13,15,17,-1,-1,19,21,23,25,27,-1,29,-1,-1,-1,31,-1,-1,33,-1,35,37,-1,-1,-1,-1,-1,-1,-1,-1,-1,-1],"loss_changes":[2.5235796E0,0E0,2.2928083E0,1.6585906E0,2.1372986E0,1.9546832E0,2.3612857E-1,1.8821115E0,2.2136118E0,4.128027E-1,0E0,0E0,2.563241E-1,1.0785508E0,5.295705E-1,4.5579493E-1,1.3899343E0,0E0,2.2010398E-1,0E0,0E0,0E0,2.7579927E-1,0E0,0E0,3.8597196E-1,0E0,4.4479024E-1,1.6953477E-1,0E0,0E0,0E0,0E0,0E0,0E0,0E0,0E0,0E0,0E0],"parents":[2147483647,0,0,2,2,3,3,4,4,5,5,6,6,7,7,8,8,9,9,12,12,13,13,14,14,15,15,16,16,18,18,22,22,25,25,27,27,28,28],"right_children":[2,-1,4,6,8,10,12,14,16,18,-1,-1,20,22,24,26,28,-1,30,-1,-1,-1,32,-1,-1,34,-1,36,38,-1,-1,-1,-1,-1,-1,-1,-1,-1,-1],"split_conditions":[9.729079E-2,-1.3890359E-1,2.7332384E7,2.8247875E6,2.3314638E7,1.4699971E7,2.56333E7,7.0932085E6,4.0832148E7,5.793874E6,-1.351248E-1,-1.3645148E-1,5.7204865E6,4E0,3.745337E7,2.4492676E7,3.1425324E7,-2.5278386E-2,8.781513E6,6.0505018E-2,-8.7854005E-2,-7.948547E-2,5.113538E5,-1.2496949E-1,5.172862E-2,3.3763516E7,-1.6785277E-1,8.565372E6,3.355044E7,1.6360208E-1,2.3852346E-2,1.9060872E-2,1.8161774E-1,-1.0886374E-1,6.650796E-2,1.653739E-1,-7.647437E-3,-1.4472674E-3,-1.06591605E-1],"split_indices":[3,0,0,2,1,1,0,2,0,0,0,0,2,4,0,1,1,0,1,0,0,0,2,0,0,0,0,2,1,0,0,0,0,0,0,0,0,0,0],"split_type":[0,0,0,0,0,0,0,0,0,0,0,0,0,0,0,0,0,0,0,0,0,0,0,0,0,0,0,0,0,0,0,0,0,0,0,0,0,0,0],"sum_hessian":[7.998722E1,9.808872E0,7.017835E1,2.5414557E1,4.4763798E1,1.1516586E1,1.3897969E1,2.3987013E1,2.0776785E1,8.029788E0,3.4867978E0,1.164425E1,2.25372E0,1.9559633E1,4.4273796E0,8.242858E0,1.2533926E1,1.4178008E0,6.6119876E0,1.0699465E0,1.1837735E0,1.0986259E0,1.8461006E1,2.4568145E0,1.970565E0,2.6011527E0,5.641705E0,7.9151626E0,4.618764E0,4.9252405E0,1.6867471E0,1.2540088E0,1.7206999E1,1.0301144E0,1.5710382E0,6.3871303E0,1.528032E0,2.57937E0,2.039394E0],"tree_param":{"num_deleted":"0","num_feature":"6","num_nodes":"39","size_leaf_vector":"1"}},{"base_weights":[3.869503E-4,1.4484073E-1,-9.262273E-2,1.6158403E-1,-2.4997342E-1,-5.606298E-2,1.4808497E-1,-4.633694E-1,-2.1657126E-2,1.172899E-1,-1.3817309E-1,-2.5975195E-1,-1.5625885E-1,3.3263943E-1,-3.362202E-1,-2.821783E-1,1.963178E-1,-1.4527142E-1,1.1647925E-1,7.453556E-2,1.561523E-1,-4.592102E-1,2.0697547E-1,-1.1109574E-1,-5.366933E-4,1.3262998E-1,-3.7733562E-2,1.0765999E-1,-1.3153693E-1,-5.3007048E-2,-1.5801223E-1,-1.0652454E-2,9.6412666E-2],"categories":[],"categories_nodes":[],"categories_segments":[],"categories_sizes":[],"default_left":[0,0,0,0,0,0,0,0,0,0,0,0,0,0,0,0,0,0,0,0,0,0,0,0,0,0,0,0,0,0,0,0,0],"id":27,"left_children":[1,-1,3,5,7,9,-1,11,13,-1,15,17,-1,19,21,23,25,-1,-1,27,-1,29,31,-1,-1,-1,-1,-1,-1,-1,-1,-1,-1],"loss_changes":[4.7415614E0,0E0,3.5842574E0,2.519463E0,2.675346E0,8.5149026E-1,0E0,1.9764471E-1,3.1963458E0,0E0,9.7510386E-1,1.3891594E0,0E0,6.167265E-1,1.1076897E0,3.3933854E-1,5.571994E-1,0E0,0E0,1.1582392E0,0E0,1.4854336E-1,1.0816036E-1,0E0,0E0,0E0,0E0,0E0,0E0,0E0,0E0,0E0,0E0],"parents":[2147483647,0,0,2,2,3,3,4,4,5,5,7,7,8,8,10,10,11,11,13,13,14,14,15,15,16,16,19,19,21,21,22,22],"right_children":[2,-1,4,6,8,10,-1,12,14,-1,16,18,-1,20,22,24,26,-1,-1,28,-1,30,32,-1,-1,-1,-1,-1,-1,-1,-1,-1,-1],"split_conditions":[4E0,1.4484073E-1,2.1981024E7,1.8163086E7,2.7994202E7,5.473047E6,1.4808497E-1,2.6758818E7,3.7156948E7,1.172899E-1,6.9253245E6,2.1919814E7,-1.5625885E-1,3.1425324E7,3.9593944E7,1.0459884E7,1.6941186E7,-1.4527142E-1,1.1647925E-1,3.29196E7,1.561523E-1,-9.073415E-3,3.8E1,-1.1109574E-1,-5.366933E-4,1.3262998E-1,-3.7733562E-2,1.0765999E-1,-1.3153693E-1,-5.3007048E-2,-1.5801223E-1,-1.0652454E-2,9.6412666E-2],"split_indices":[4,0,0,1,1,0,0,0,0,0,2,1,0,1,1,1,0,0,0,0,0,3,5,0,0,0,0,0,0,0,0,0,0],"split_type":[0,0,0,0,0,0,0,0,0,0,0,0,0,0,0,0,0,0,0,0,0,0,0,0,0,0,0,0,0,0,0,0,0],"sum_hessian":[1.0367831E2,1.6080793E1,8.759751E1,3.3480854E1,5.4116657E1,2.0726078E1,1.2754776E1,2.7440174E1,2.6676483E1,2.632509E0,1.8093569E1,7.256976E0,2.0183197E1,1.2518861E1,1.4157623E1,1.2757568E1,5.3360014E0,5.5775394E0,1.6794367E0,5.8620253E0,6.6568356E0,1.1669938E1,2.4876852E0,9.462337E0,3.2952323E0,2.8152204E0,2.5207808E0,3.9648888E0,1.8971362E0,2.9480717E0,8.721866E0,1.0184921E0,1.4691931E0],"tree_param":{"num_deleted":"0","num_feature":"6","num_nodes":"33","size_leaf_vector":"1"}},{"base_weights":[6.3197133E-3,-1.3850914E-1,5.4800462E-2,-1.20673224E-1,7.451421E-2,8.980269E-2,-1.1231492E-1,2.0635888E-1,2.6434762E-2,2.446868E-1,-6.917499E-2,-2.4127936E-1,5.1489588E-2,4.4472687E-2,1.0928208E-1,-1.0368559E-1,3.411861E-2,6.7496314E-3,-1.3826641E-1,7.902156E-2,-5.701018E-4],"categories":[],"categories_nodes":[],"categories_segments":[],"categories_sizes":[],"default_left":[0,0,0,0,0,0,0,0,0,0,0,0,0,0,0,0,0,0,0,0,0],"id":28,"left_children":[1,-1,3,-1,5,7,-1,9,11,13,15,17,19,-1,-1,-1,-1,-1,-1,-1,-1],"loss_changes":[2.6631887E0,0E0,9.8720205E-1,0E0,7.383829E-1,7.339872E-1,0E0,3.877405E-1,4.551353E-1,3.0406082E-1,2.9553172E-1,3.4775722E-1,6.926775E-1,0E0,0E0,0E0,0E0,0E0,0E0,0E0,0E0],"parents":[2147483647,0,0,2,2,4,4,5,5,7,7,8,8,9,9,10,10,11,11,12,12],"right_children":[2,-1,4,-1,6,8,-1,10,12,14,16,18,20,-1,-1,-1,-1,-1,-1,-1,-1],"split_conditions":[4E0,-1.3850914E-1,6.860118E6,-1.20673224E-1,4.163563E7,2.0240626E-1,-1.1231492E-1,8.824164E6,3.996743E6,3.542172E7,2.334743E7,2.4212312E6,1.0459884E7,4.4472687E-2,1.0928208E-1,-1.0368559E-1,3.411861E-2,6.7496314E-3,-1.3826641E-1,7.902156E-2,-5.701018E-4],"split_indices":[4,0,0,0,1,3,0,2,1,0,0,1,1,0,0,0,0,0,0,0,0],"split_type":[0,0,0,0,0,0,0,0,0,0,0,0,0,0,0,0,0,0,0,0,0],"sum_hessian":[1.15258705E2,1.0018657E1,1.0524004E2,3.5492733E0,1.0169077E2,9.9115074E1,2.5756989E0,3.4112858E1,6.500221E1,3.0045374E1,4.067484E0,4.824264E0,6.017795E1,1.7871756E1,1.2173617E1,1.2653669E0,2.802117E0,2.5994918E0,2.224772E0,1.1318579E1,4.885937E1],"tree_param":{"num_deleted":"0","num_feature":"6","num_nodes":"21","size_leaf_vector":"1"}},{"base_weights":[-1.084456E-2,-1.3508306E-1,4.9628463E-2,-1.6735393E-1,1.694668E-1,9.058998E-2,-3.8018852E-1,3.5726944E-1,-4.9134158E-2,3.320248E-1,-1.3067695E-1,-1.3082099E-1,-6.1507452E-2,4.8090512E-1,-1.583454E-1,-3.1381896E-1,2.7153718E-1,-1.7718911E-2,4.1342574E-1,5.7146214E-2,-8.33527E-2,1.1313421E-1,5.376349E-1,-1.1846753E-1,4.64876E-2,7.0762895E-2,-3.9723846E-1,4.0671974E-1,-9.240763E-2,1.500692E-1,9.0666795E-3,-5.190293E-2,1.0593613E-1,1.7320591E-1,5.0031554E-2,-1.6662928E-1,-3.0004712E-2,1.52631E-1,-4.7169033E-2],"categories":[],"categories_nodes":[],"categories_segments":[],"categories_sizes":[],"default_left":[0,0,0,0,0,0,0,0,0,0,0,0,0,0,0,0,0,0,0,0,0,0,0,0,0,0,0,0,0,0,0,0,0,0,0,0,0,0,0],"id":29,"left_children":[1,-1,3,5,7,9,11,13,15,17,-1,-1,19,21,23,25,27,-1,29,-1,-1,31,33,-1,-1,-1,35,37,-1,-1,-1,-1,-1,-1,-1,-1,-1,-1,-1],"loss_changes":[1.9219819E0,0E0,1.685741E0,1.3070543E0,1.723656E0,1.5785582E0,2.0278895E-1,1.5088565E0,1.7898172E0,2.8879696E-1,0E0,0E0,2.2125743E-1,3.2255125E-1,4.3908432E-1,6.194738E-1,8.787652E-1,0E0,2.1769464E-1,0E0,0E0,3.166976E-1,1.3428593E-1,0E0,0E0,0E0,4.3004274E-1,5.536009E-1,0E0,0E0,0E0,0E0,0E0,0E0,0E0,0E0,0E0,0E0,0E0],"parents":[2147483647,0,0,2,2,3,3,4,4,5,5,6,6,7,7,8,8,9,9,12,12,13,13,14,14,15,15,16,16,18,18,21,21,22,22,26,26,27,27],"right_children":[2,-1,4,6,8,10,12,14,16,18,-1,-1,20,22,24,26,28,-1,30,-1,-1,32,34,-1,-1,-1,36,38,-1,-1,-1,-1,-1,-1,-1,-1,-1,-1,-1],"split_conditions":[9.729079E-2,-1.3508306E-1,2.7332384E7,2.8247875E6,2.3314638E7,1.4699971E7,2.56333E7,7.0932085E6,4.370157E7,5.793874E6,-1.3067695E-1,-1.3082099E-1,5.7204865E6,5E0,3.745337E7,1E1,3.355044E7,-1.7718911E-2,6.2755305E-1,5.7146214E-2,-8.33527E-2,5.1112915E6,6.5229165E6,-1.1846753E-1,4.64876E-2,7.0762895E-2,3.870515E7,6.7918575E-1,-9.240763E-2,1.500692E-1,9.0666795E-3,-5.190293E-2,1.0593613E-1,1.7320591E-1,5.0031554E-2,-1.6662928E-1,-3.0004712E-2,1.52631E-1,-4.7169033E-2],"split_indices":[3,0,0,2,1,1,0,2,0,0,0,0,2,4,0,5,1,0,3,0,0,2,2,0,0,0,0,3,0,0,0,0,0,0,0,0,0,0,0],"split_type":[0,0,0,0,0,0,0,0,0,0,0,0,0,0,0,0,0,0,0,0,0,0,0,0,0,0,0,0,0,0,0,0,0,0,0,0,0,0,0],"sum_hessian":[7.0485275E1,7.7467747E0,6.27385E1,2.2180826E1,4.0557674E1,1.028741E1,1.1893415E1,2.1474411E1,1.9083263E1,7.304684E0,2.982726E0,9.805619E0,2.0877957E0,1.7375402E1,4.09901E0,1.0465949E1,8.617313E0,1.3057368E0,5.9989476E0,1.0196034E0,1.0681925E0,2.7221792E0,1.4653223E1,2.187229E0,1.9117811E0,1.138194E0,9.327755E0,7.2293115E0,1.3880018E0,4.642024E0,1.3569233E0,1.3689803E0,1.3531989E0,1.2732803E1,1.920419E0,5.5207047E0,3.8070505E0,6.204427E0,1.0248848E0],"tree_param":{"num_deleted":"0","num_feature":"6","num_nodes":"39","size_leaf_vector":"1"}},{"base_weights":[-2.8954037E-3,1.4167842E-1,-8.5732915E-2,5.5409238E-2,-3.4005344E-1,-1.4047404E-1,4.6044168E-1,-1.5603584E-1,-2.098441E-2,9.194241E-2,-3.9601666E-1,1.4732471E-1,1.3370418E-2,1.4544189E-1,-2.3477226E-1,-2.0805047E-1,2.8476354E-1,-1.509555E-1,-6.6603564E-2,-3.5641998E-1,8.613008E-2,-1.3528079E-1,1.1857144E-3,3.3711467E-2,1.3753617E-1,1.1025469E-1,-9.336661E-2,-5.0814236E-3,-1.3455091E-1],"categories":[],"categories_nodes":[],"categories_segments":[],"categories_sizes":[],"default_left":[0,0,0,0,0,0,0,0,0,0,0,0,0,0,0,0,0,0,0,0,0,0,0,0,0,0,0,0,0],"id":30,"left_children":[1,-1,3,5,7,9,11,-1,13,15,17,-1,-1,-1,19,21,23,-1,25,27,-1,-1,-1,-1,-1,-1,-1,-1,-1],"loss_changes":[3.5877016E0,0E0,2.8038864E0,4.0916433E0,1.588103E0,2.1137938E0,1.9192314E-1,0E0,1.3121839E0,1.1657666E0,5.6127286E-1,0E0,0E0,0E0,6.3963425E-1,4.1693375E-1,3.097939E-1,0E0,6.759641E-1,2.2091138E-1,0E0,0E0,0E0,0E0,0E0,0E0,0E0,0E0,0E0],"parents":[2147483647,0,0,2,2,3,3,4,4,5,5,6,6,8,8,9,9,10,10,14,14,15,15,16,16,18,18,19,19],"right_children":[2,-1,4,6,8,10,12,-1,14,16,18,-1,-1,-1,20,22,24,-1,26,28,-1,-1,-1,-1,-1,-1,-1,-1,-1],"split_conditions":[4E0,1.4167842E-1,3.3275988E7,2.4245314E7,3.4109532E7,1.8615066E7,3.2521122E7,-1.5603584E-1,3.870515E7,5.2020785E6,2.0053522E7,1.4732471E-1,1.3370418E-2,1.4544189E-1,4.163563E7,3.1334792E6,5.3338665E6,-1.509555E-1,2.3638284E7,4.0832148E7,8.613008E-2,-1.3528079E-1,1.1857144E-3,3.3711467E-2,1.3753617E-1,1.1025469E-1,-9.336661E-2,-5.0814236E-3,-1.3455091E-1],"split_indices":[4,0,0,1,1,0,0,0,0,1,1,0,0,0,1,2,2,0,0,0,0,0,0,0,0,0,0,0,0],"split_type":[0,0,0,0,0,0,0,0,0,0,0,0,0,0,0,0,0,0,0,0,0,0,0,0,0,0,0,0,0],"sum_hessian":[8.9120445E1,1.2532551E1,7.658789E1,4.975636E1,2.683153E1,3.3977306E1,1.5779053E1,1.6749096E1,1.0082435E1,1.8129084E1,1.5848225E1,1.4527827E1,1.2512254E0,2.6188715E0,7.4635634E0,7.062383E0,1.10667E1,1.1559908E1,4.2883162E0,6.309796E0,1.1537678E0,2.7662005E0,4.2961826E0,6.3806796E0,4.6860204E0,1.3644508E0,2.9238653E0,1.5989395E0,4.710856E0],"tree_param":{"num_deleted":"0","num_feature":"6","num_nodes":"29","size_leaf_vector":"1"}},{"base_weights":[6.3569085E-3,-1.341529E-1,4.6383988E-2,-2.0038113E-1,7.833412E-2,5.684842E-3,-1.2893365E-1,2.842492E-1,4.7859035E-2,2.1132684E-1,-1.0236858E-1,3.681208E-1,-5.8027096E-3,5.9349265E-2,-9.433653E-2,-1.8749384E-2,3.0841812E-1,3.9119974E-1,3.0598857E-2,-9.082708E-2,8.786285E-2,-8.0996476E-2,8.3701335E-2,3.1413552E-3,1.2407073E-1,1.3566144E-1,3.9661333E-2,-1.0866512E-1,2.7536836E-2,1.209081E-1,1.1820509E-2],"categories":[],"categories_nodes":[],"categories_segments":[],"categories_sizes":[],"default_left":[0,0,0,0,0,0,0,0,0,0,0,0,0,0,0,0,0,0,0,0,0,0,0,0,0,0,0,0,0,0,0],"id":31,"left_children":[1,-1,3,5,7,9,-1,11,13,15,-1,17,19,21,-1,-1,23,25,-1,-1,-1,27,29,-1,-1,-1,-1,-1,-1,-1,-1],"loss_changes":[1.9289228E0,0E0,7.843608E-1,5.440372E-1,5.325796E-1,5.7309425E-1,0E0,2.701788E-1,3.3929855E-1,1.5291005E-1,0E0,1.2688041E-2,3.9518732E-1,2.6479205E-1,0E0,0E0,1.1720428E-1,5.9133887E-2,0E0,0E0,0E0,6.0032904E-1,9.0109706E-1,0E0,0E0,0E0,0E0,0E0,0E0,0E0,0E0],"parents":[2147483647,0,0,2,2,3,3,4,4,5,5,7,7,8,8,9,9,11,11,12,12,13,13,16,16,17,17,21,21,22,22],"right_children":[2,-1,4,6,8,10,-1,12,14,16,-1,18,20,22,-1,-1,24,26,-1,-1,-1,28,30,-1,-1,-1,-1,-1,-1,-1,-1],"split_conditions":[4E0,-1.341529E-1,1.3022106E7,4.7128715E6,-2.4508372E-2,1.0459884E7,-1.2893365E-1,3.4109532E7,4.163563E7,3.5686318E6,-1.0236858E-1,7.8E1,4.0116464E7,7.7768125E6,-9.433653E-2,-1.8749384E-2,6.9798735E6,2.8809892E7,3.0598857E-2,-9.082708E-2,8.786285E-2,4.1364268E6,1.0459884E7,3.1413552E-3,1.2407073E-1,1.3566144E-1,3.9661333E-2,-1.0866512E-1,2.7536836E-2,1.209081E-1,1.1820509E-2],"split_indices":[4,0,0,2,3,1,0,1,1,1,0,5,0,1,0,0,0,1,0,0,0,2,1,0,0,0,0,0,0,0,0],"split_type":[0,0,0,0,0,0,0,0,0,0,0,0,0,0,0,0,0,0,0,0,0,0,0,0,0,0,0,0,0,0,0],"sum_hessian":[1.0411303E2,7.6185045E0,9.649452E1,1.0457202E1,8.603732E1,6.022479E0,4.434723E0,1.00182705E1,7.601905E1,4.0265017E0,1.9959772E0,7.562374E0,2.4558961E0,7.449282E1,1.5262299E0,1.1472449E0,2.879257E0,6.5264025E0,1.0359716E0,1.2246572E0,1.231239E0,1.0670512E1,6.382231E1,1.0379086E0,1.8413484E0,4.6784263E0,1.847976E0,3.643743E0,7.0267687E0,6.7887964E0,5.7033512E1],"tree_param":{"num_deleted":"0","num_feature":"6","num_nodes":"31","size_leaf_vector":"1"}},{"base_weights":[-6.378779E-3,-1.3105612E-1,4.7675975E-2,-1.5394714E-1,1.5397188E-1,2.3134364E-2,-1.3643546E-1,3.340823E-1,-4.9264587E-2,2.1757755E-1,-1.3148095E-1,4.5391262E-1,-1.4725545E-1,-3.935713E-1,1.5601742E-1,-8.10012E-2,1.4120246E-1,1.1384146E-1,5.084913E-1,-1.1279484E-1,4.205093E-2,1.2123107E-2,-1.4427523E-1,3.9302614E-1,-2.1213052E-1,7.5838916E-2,-1.294068E-1,-4.5496143E-2,9.663037E-2,1.6610883E-1,4.4794552E-2,1.4885078E-1,-1.4799796E-2,-1.089631E-1,-3.324521E-3],"categories":[],"categories_nodes":[],"categories_segments":[],"categories_sizes":[],"default_left":[0,0,0,0,0,0,0,0,0,0,0,0,0,0,0,0,0,0,0,0,0,0,0,0,0,0,0,0,0,0,0,0,0,0,0],"id":32,"left_children":[1,-1,3,5,7,9,-1,11,13,15,-1,17,19,21,23,25,-1,27,29,-1,-1,-1,-1,31,33,-1,-1,-1,-1,-1,-1,-1,-1,-1,-1],"loss_changes":[1.5064752E0,0E0,1.258704E0,1.096891E0,1.4159534E0,1.3323916E0,0E0,1.2433679E0,1.3926218E0,8.216726E-1,0E0,2.4979115E-1,3.6964E-1,2.9686904E-1,1.1754065E0,7.651273E-1,0E0,2.468482E-1,1.4457011E-1,0E0,0E0,0E0,0E0,3.878622E-1,1.6458794E-1,0E0,0E0,0E0,0E0,0E0,0E0,0E0,0E0,0E0,0E0],"parents":[2147483647,0,0,2,2,3,3,4,4,5,5,7,7,8,8,9,9,11,11,12,12,13,13,14,14,15,15,17,17,18,18,23,23,24,24],"right_children":[2,-1,4,6,8,10,-1,12,14,16,-1,18,20,22,24,26,-1,28,30,-1,-1,-1,-1,32,34,-1,-1,-1,-1,-1,-1,-1,-1,-1,-1],"split_conditions":[9.729079E-2,-1.3105612E-1,2.7332384E7,4.304274E6,2.3314638E7,1.4699971E7,-1.3643546E-1,7.0932085E6,3.9000852E7,1.6529178E7,-1.3148095E-1,5E0,3.745337E7,1.9E1,3.1425324E7,4.4787895E6,1.4120246E-1,5.1112915E6,6.5229165E6,-1.1279484E-1,4.205093E-2,1.2123107E-2,-1.4427523E-1,8.565372E6,4.6607108E7,7.5838916E-2,-1.294068E-1,-4.5496143E-2,9.663037E-2,1.6610883E-1,4.4794552E-2,1.4885078E-1,-1.4799796E-2,-1.089631E-1,-3.324521E-3],"split_indices":[3,0,0,2,1,1,0,2,0,0,0,4,0,5,1,1,0,2,2,0,0,0,0,2,0,0,0,0,0,0,0,0,0,0,0],"split_type":[0,0,0,0,0,0,0,0,0,0,0,0,0,0,0,0,0,0,0,0,0,0,0,0,0,0,0,0,0,0,0,0,0,0,0],"sum_hessian":[6.2846058E1,6.221145E0,5.6624912E1,1.9392582E1,3.723233E1,1.2788194E1,6.604388E0,1.939789E1,1.783444E1,9.368571E0,3.4196224E0,1.5576946E1,3.820945E0,6.3189077E0,1.15155325E1,4.6100535E0,4.7585177E0,2.5809946E0,1.2995952E1,1.9561627E0,1.8647822E0,1.1487359E0,5.1701717E0,6.9643807E0,4.5511518E0,2.5034082E0,2.1066453E0,1.2540728E0,1.3269217E0,1.1062133E1,1.9338186E0,5.548917E0,1.415464E0,2.1379747E0,2.4131773E0],"tree_param":{"num_deleted":"0","num_feature":"6","num_nodes":"35","size_leaf_vector":"1"}},{"base_weights":[-6.345583E-3,1.3830808E-1,-8.083482E-2,5.312448E-2,-3.2397443E-1,-1.3164859E-1,4.467266E-1,-1.5267625E-1,-1.8438118E-2,7.80807E-2,-3.7172246E-1,1.4382325E-1,1.4041346E-2,1.3721384E-1,-2.1979488E-1,-1.9539742E-1,2.577559E-1,-1.4531608E-1,-6.087156E-2,-3.759685E-1,4.860865E-2,-1.270626E-1,-9.965186E-4,2.7376052E-2,1.3071015E-1,1.0424295E-1,-8.690508E-2,-7.277599E-3,-1.3642693E-1],"categories":[],"categories_nodes":[],"categories_segments":[],"categories_sizes":[],"default_left":[0,0,0,0,0,0,0,0,0,0,0,0,0,0,0,0,0,0,0,0,0,0,0,0,0,0,0,0,0],"id":33,"left_children":[1,-1,3,5,7,9,11,-1,13,15,17,-1,-1,-1,19,21,23,-1,25,27,-1,-1,-1,-1,-1,-1,-1,-1,-1],"loss_changes":[2.7463374E0,0E0,2.2310069E0,3.3084643E0,1.3629568E0,1.5989761E0,1.6712451E-1,0E0,1.0773089E0,9.0871274E-1,4.857583E-1,0E0,0E0,0E0,5.283632E-1,3.2703227E-1,2.8536195E-1,0E0,5.7320195E-1,1.514793E-1,0E0,0E0,0E0,0E0,0E0,0E0,0E0,0E0,0E0],"parents":[2147483647,0,0,2,2,3,3,4,4,5,5,6,6,8,8,9,9,10,10,14,14,15,15,16,16,18,18,19,19],"right_children":[2,-1,4,6,8,10,12,-1,14,16,18,-1,-1,-1,20,22,24,-1,26,28,-1,-1,-1,-1,-1,-1,-1,-1,-1],"split_conditions":[4E0,1.3830808E-1,3.3275988E7,2.4245314E7,3.4109532E7,1.8615066E7,3.2521122E7,-1.5267625E-1,3.870515E7,5.2020785E6,2.0053522E7,1.4382325E-1,1.4041346E-2,1.3721384E-1,3.9593944E7,3.1334792E6,5.3338665E6,-1.4531608E-1,2.3638284E7,2.933086E6,4.860865E-2,-1.270626E-1,-9.965186E-4,2.7376052E-2,1.3071015E-1,1.0424295E-1,-8.690508E-2,-7.277599E-3,-1.3642693E-1],"split_indices":[4,0,0,1,1,0,0,0,0,1,1,0,0,0,1,2,2,0,0,2,0,0,0,0,0,0,0,0,0],"split_type":[0,0,0,0,0,0,0,0,0,0,0,0,0,0,0,0,0,0,0,0,0,0,0,0,0,0,0,0,0],"sum_hessian":[7.681505E1,9.846343E0,6.6968704E1,4.368286E1,2.3285841E1,3.0180445E1,1.3502416E1,1.4090783E1,9.195059E0,1.646838E1,1.3712064E1,1.229854E1,1.2038754E0,2.356062E0,6.838997E0,6.495014E0,9.973367E0,9.654601E0,4.057462E0,4.864609E0,1.9743882E0,2.4179418E0,4.0770726E0,5.9338737E0,4.039493E0,1.2708449E0,2.7866173E0,1.1296669E0,3.734942E0],"tree_param":{"num_deleted":"0","num_feature":"6","num_nodes":"29","size_leaf_vector":"1"}},{"base_weights":[8.029449E-3,-1.29158E-1,4.1596387E-2,-1.09352864E-1,5.7251766E-2,6.890838E-2,-9.777651E-2,1.6756195E-1,1.8978423E-2,2.0557186E-1,-9.7525835E-2,-1.06744185E-1,7.669471E-2,7.085806E-2,-4.9274624E-3,-7.8217015E-2,3.8575515E-2,-4.9915437E-2,7.6491416E-2,-1.0084443E-1,3.0647459E-2],"categories":[],"categories_nodes":[],"categories_segments":[],"categories_sizes":[],"default_left":[0,0,0,0,0,0,0,0,0,0,0,0,0,0,0,0,0,0,0,0,0],"id":34,"left_children":[1,-1,3,-1,5,7,-1,9,11,13,15,17,19,-1,-1,-1,-1,-1,-1,-1,-1],"loss_changes":[1.4123651E0,0E0,5.8609045E-1,0E0,4.0866455E-1,4.1422877E-1,0E0,3.0568415E-1,4.2463422E-1,1.746087E-1,1.8973482E-1,4.4099417E-1,4.53955E-1,0E0,0E0,0E0,0E0,0E0,0E0,0E0,0E0],"parents":[2147483647,0,0,2,2,4,4,5,5,7,7,8,8,9,9,10,10,11,11,12,12],"right_children":[2,-1,4,-1,6,8,-1,10,12,14,16,18,20,-1,-1,-1,-1,-1,-1,-1,-1],"split_conditions":[4E0,-1.29158E-1,6.860118E6,-1.09352864E-1,4.163563E7,2.0240626E-1,-9.777651E-2,8.824164E6,6E0,3.4332896E7,9.456981E6,4.4865136E7,2.3123387E-1,7.085806E-2,-4.9274624E-3,-7.8217015E-2,3.8575515E-2,-4.9915437E-2,7.6491416E-2,-1.0084443E-1,3.0647459E-2],"split_indices":[4,0,0,0,1,3,0,2,4,1,2,0,3,0,0,0,0,0,0,0,0],"split_type":[0,0,0,0,0,0,0,0,0,0,0,0,0,0,0,0,0,0,0,0,0],"sum_hessian":[9.3725784E1,5.822905E0,8.790288E1,2.435736E0,8.546714E1,8.373984E1,1.7273058E0,2.7348217E1,5.639162E1,2.4114977E1,3.23324E0,1.7475504E1,3.8916115E1,2.1135632E1,2.979345E0,1.7889626E0,1.4442773E0,1.5465521E1,2.009983E0,1.5520083E0,3.7364105E1],"tree_param":{"num_deleted":"0","num_feature":"6","num_nodes":"21","size_leaf_vector":"1"}},{"base_weights":[-4.6935626E-3,-1.2669337E-1,4.4111565E-2,-1.476896E-1,1.3966979E-1,1.828184E-2,-1.3204986E-1,3.1350255E-1,-5.013251E-2,1.9922552E-1,-1.2600371E-1,4.702354E-1,-3.930573E-2,-1.4539428E-1,9.620477E-2,-7.3219046E-2,1.307816E-1,3.7167596E-3,1.5342507E-1,-1.18660405E-1,2.2279733E-1,2.6142618E-1,-2.0847128E-1,6.793506E-2,-1.1957104E-1,1.3618414E-1,-3.793019E-2,1.21292695E-1,-1.2721743E-2,-1.0724253E-1,-3.6243163E-3],"categories":[],"categories_nodes":[],"categories_segments":[],"categories_sizes":[],"default_left":[0,0,0,0,0,0,0,0,0,0,0,0,0,0,0,0,0,0,0,0,0,0,0,0,0,0,0,0,0,0,0],"id":35,"left_children":[1,-1,3,5,7,9,-1,11,13,15,-1,17,19,-1,21,23,-1,-1,-1,-1,25,27,29,-1,-1,-1,-1,-1,-1,-1,-1],"loss_changes":[1.1772771E0,0E0,9.701024E-1,8.678818E-1,1.1735096E0,1.0560122E0,0E0,1.0389267E0,1.1680986E0,6.353104E-1,0E0,2.3603702E-1,7.042859E-1,0E0,7.6066154E-1,5.978282E-1,0E0,0E0,0E0,0E0,4.1594E-1,4.312696E-1,1.5629947E-1,0E0,0E0,0E0,0E0,0E0,0E0,0E0,0E0],"parents":[2147483647,0,0,2,2,3,3,4,4,5,5,7,7,8,8,9,9,11,11,12,12,14,14,15,15,20,20,21,21,22,22],"right_children":[2,-1,4,6,8,10,-1,12,14,16,-1,18,20,-1,22,24,-1,-1,-1,-1,26,28,30,-1,-1,-1,-1,-1,-1,-1,-1],"split_conditions":[9.729079E-2,-1.2669337E-1,2.7332384E7,4.304274E6,2.3314638E7,1.4699971E7,-1.3204986E-1,6.5229165E6,3.7156948E7,1.6529178E7,-1.2600371E-1,5.784445E5,3.5153772E7,-1.4539428E-1,3.1425324E7,4.4787895E6,1.307816E-1,3.7167596E-3,1.5342507E-1,-1.18660405E-1,6.7E1,8E0,4.6607108E7,6.793506E-2,-1.1957104E-1,1.3618414E-1,-3.793019E-2,1.21292695E-1,-1.2721743E-2,-1.0724253E-1,-3.6243163E-3],"split_indices":[3,0,0,2,1,1,0,2,0,0,0,2,0,0,1,1,0,0,0,0,5,4,0,0,0,0,0,0,0,0,0],"split_type":[0,0,0,0,0,0,0,0,0,0,0,0,0,0,0,0,0,0,0,0,0,0,0,0,0,0,0,0,0,0,0],"sum_hessian":[5.584697E1,5.0428767E0,5.0804092E1,1.671293E1,3.4091164E1,1.126046E1,5.4524703E0,1.7453983E1,1.6637178E1,8.35618E0,2.9042804E0,1.1854751E1,5.5992336E0,3.6090572E0,1.3028122E1,4.205989E0,4.150191E0,1.085643E0,1.0769108E1,2.157651E0,3.4415824E0,8.539324E0,4.488798E0,2.347642E0,1.8583469E0,1.8904692E0,1.5511134E0,5.5830765E0,2.9562478E0,2.0859396E0,2.4028583E0],"tree_param":{"num_deleted":"0","num_feature":"6","num_nodes":"31","size_leaf_vector":"1"}},{"base_weights":[-8.573353E-3,1.3484599E-1,-7.601197E-2,4.943369E-2,-3.0989143E-1,-1.2295116E-1,4.3261805E-1,-1.4920685E-1,-2.0889042E-2,6.523495E-2,-3.4996632E-1,1.4039223E-1,1.3211294E-2,1.2969284E-1,-2.1231367E-1,-9.121017E-2,3.453878E-1,-1.4047766E-1,-5.4154664E-2,-3.5481277E-1,4.1319158E-2,-9.726692E-2,3.9931204E-2,3.2534357E-2,1.2723237E-1,9.985539E-2,-8.150737E-2,-6.044622E-3,-1.3079953E-1],"categories":[],"categories_nodes":[],"categories_segments":[],"categories_sizes":[],"default_left":[0,0,0,0,0,0,0,0,0,0,0,0,0,0,0,0,0,0,0,0,0,0,0,0,0,0,0,0,0],"id":36,"left_children":[1,-1,3,5,7,9,11,-1,13,15,17,-1,-1,-1,19,21,23,-1,25,27,-1,-1,-1,-1,-1,-1,-1,-1,-1],"loss_changes":[2.1409366E0,0E0,1.784568E0,2.7028606E0,1.137656E0,1.2380407E0,1.5342975E-1,0E0,9.0562934E-1,7.500967E-1,4.312786E-1,0E0,0E0,0E0,4.11303E-1,6.343949E-1,6.748283E-2,0E0,4.9946177E-1,1.3911384E-1,0E0,0E0,0E0,0E0,0E0,0E0,0E0,0E0,0E0],"parents":[2147483647,0,0,2,2,3,3,4,4,5,5,6,6,8,8,9,9,10,10,14,14,15,15,16,16,18,18,19,19],"right_children":[2,-1,4,6,8,10,12,-1,14,16,18,-1,-1,-1,20,22,24,-1,26,28,-1,-1,-1,-1,-1,-1,-1,-1,-1],"split_conditions":[4E0,1.3484599E-1,3.3275988E7,2.4245314E7,3.4109532E7,1.8615066E7,3.2521122E7,-1.4920685E-1,3.870515E7,1.0459884E7,2.0053522E7,1.4039223E-1,1.3211294E-2,1.2969284E-1,3.9593944E7,4.8407705E6,1.3530581E7,-1.4047766E-1,2.3638284E7,2.933086E6,4.1319158E-2,-9.726692E-2,3.9931204E-2,3.2534357E-2,1.2723237E-1,9.985539E-2,-8.150737E-2,-6.044622E-3,-1.3079953E-1],"split_indices":[4,0,0,1,1,0,0,0,0,1,1,0,0,0,1,2,1,0,0,2,0,0,0,0,0,0,0,0,0],"split_type":[0,0,0,0,0,0,0,0,0,0,0,0,0,0,0,0,0,0,0,0,0,0,0,0,0,0,0,0,0],"sum_hessian":[6.7200294E1,7.8969707E0,5.930332E1,3.9112976E1,2.0190346E1,2.7445211E1,1.1667766E1,1.180922E1,8.381126E0,1.5395567E1,1.20496435E1,1.0507404E1,1.1603614E0,2.1151414E0,6.2659845E0,1.031167E1,5.083896E0,8.191122E0,3.8585222E0,4.4434733E0,1.8225114E0,4.839305E0,5.472366E0,1.8607767E0,3.2231197E0,1.1976907E0,2.6608315E0,1.1111722E0,3.3323011E0],"tree_param":{"num_deleted":"0","num_feature":"6","num_nodes":"29","size_leaf_vector":"1"}},{"base_weights":[8.335431E-3,-1.2346274E-1,3.6304627E-2,-1.7823982E-1,6.284933E-2,9.967668E-3,-1.20201744E-1,2.482654E-1,3.8259458E-2,1.759498E-1,-9.07493E-2,3.168915E-1,-3.3231307E-4,9.212589E-2,2.665617E-2,-2.3605855E-2,8.1982955E-2,1.427492E-1,1.2016953E-1,-8.259296E-2,5.7375744E-2,-1.3915885E-2,8.624726E-2,3.9591916E-2,-1.0635282E-1,-1.4754236E-2,3.590722E-2],"categories":[],"categories_nodes":[],"categories_segments":[],"categories_sizes":[],"default_left":[0,0,0,0,0,0,0,0,0,0,0,0,0,0,0,0,0,0,0,0,0,0,0,0,0,0,0],"id":37,"left_children":[1,-1,3,5,7,9,-1,11,13,15,-1,17,-1,-1,19,-1,-1,21,-1,23,25,-1,-1,-1,-1,-1,-1],"loss_changes":[1.0300277E0,0E0,4.7795355E-1,3.926759E-1,3.2640445E-1,3.6466026E-1,0E0,1.4486301E-1,1.984007E-1,1.3436274E-1,0E0,3.9360106E-2,0E0,0E0,2.2148739E-1,0E0,0E0,1.1473469E-1,0E0,8.9769846E-1,3.4452534E-1,0E0,0E0,0E0,0E0,0E0,0E0],"parents":[2147483647,0,0,2,2,3,3,4,4,5,5,7,7,8,8,9,9,11,11,14,14,17,17,19,19,20,20],"right_children":[2,-1,4,6,8,10,-1,12,14,16,-1,18,-1,-1,20,-1,-1,22,-1,24,26,-1,-1,-1,-1,-1,-1],"split_conditions":[4E0,-1.2346274E-1,1.3022106E7,4.7128715E6,-2.4508372E-2,1.0459884E7,-1.20201744E-1,3.4109532E7,1.3653975E7,3.5686318E6,-9.07493E-2,3.02453E7,-3.3231307E-4,9.212589E-2,2.413128E7,-2.3605855E-2,8.1982955E-2,-8.1356235E-2,1.2016953E-1,1.3530581E7,4.2E1,-1.3915885E-2,8.624726E-2,3.9591916E-2,-1.0635282E-1,-1.4754236E-2,3.590722E-2],"split_indices":[4,0,0,2,3,1,0,1,0,1,0,0,0,0,0,0,0,3,0,1,5,0,0,0,0,0,0],"split_type":[0,0,0,0,0,0,0,0,0,0,0,0,0,0,0,0,0,0,0,0,0,0,0,0,0,0,0],"sum_hessian":[8.543712E1,4.4792843E0,8.095783E1,8.2845125E0,7.267332E1,5.0048957E0,3.279617E0,7.4443226E0,6.5229E1,3.5539367E0,1.4509592E0,5.6254716E0,1.8188512E0,1.645286E0,6.358371E1,1.0357163E0,2.5182204E0,2.7039692E0,2.921502E0,1.3584402E1,4.999931E1,1.4668039E0,1.2371652E0,7.880584E0,5.7038183E0,1.8527935E1,3.1471375E1],"tree_param":{"num_deleted":"0","num_feature":"6","num_nodes":"27","size_leaf_vector":"1"}},{"base_weights":[-2.6460972E-3,-1.2200785E-1,4.1319177E-2,7.876876E-2,-1.1568353E-1,1.2210427E-2,3.9875674E-1,9.52623E-2,-3.495936E-1,1.3830839E-1,7.934085E-3,1.7761558E-1,-2.904846E-1,-1.1553698E-1,-1.3673484E-1,-2.419255E-4,1.4911832E-1,-1.4527415E-1,3.8896844E-2,-8.901123E-2,3.9462265E-2],"categories":[],"categories_nodes":[],"categories_segments":[],"categories_sizes":[],"default_left":[0,0,0,0,0,0,0,0,0,0,0,0,0,0,0,0,0,0,0,0,0],"id":38,"left_children":[1,-1,3,5,-1,7,9,11,13,-1,-1,15,17,19,-1,-1,-1,-1,-1,-1,-1],"loss_changes":[9.2839056E-1,0E0,7.84839E-1,9.367784E-1,0E0,1.1640841E0,1.6357481E-1,1.0488434E0,1.2727976E-1,0E0,0E0,1.5102162E0,5.432755E-1,2.0013173E-1,0E0,0E0,0E0,0E0,0E0,0E0,0E0],"parents":[2147483647,0,0,2,2,3,3,5,5,6,6,7,7,8,8,11,11,12,12,13,13],"right_children":[2,-1,4,6,-1,8,10,12,14,-1,-1,16,18,20,-1,-1,-1,-1,-1,-1,-1],"split_conditions":[9.729079E-2,-1.2200785E-1,3.355044E7,4.536218E7,-1.1568353E-1,7.0932085E6,6.236236E-1,2.4492676E7,6.7E1,1.3830839E-1,7.934085E-3,3.2036784E7,3.969129E7,3.745337E7,-1.3673484E-1,-2.419255E-4,1.4911832E-1,-1.4527415E-1,3.8896844E-2,-8.901123E-2,3.9462265E-2],"split_indices":[3,0,1,0,0,2,3,1,5,0,0,0,0,0,0,0,0,0,0,0,0],"split_type":[0,0,0,0,0,0,0,0,0,0,0,0,0,0,0,0,0,0,0,0,0],"sum_hessian":[5.031643E1,4.128122E0,4.618831E1,4.3213226E1,2.975083E0,3.6631863E1,6.5813637E0,3.0392082E1,6.2397795E0,5.434172E0,1.1471915E0,2.5489805E1,4.902277E0,2.5990715E0,3.6407077E0,1.6994967E1,8.494838E0,3.250577E0,1.6517001E0,1.3836632E0,1.2154082E0],"tree_param":{"num_deleted":"0","num_feature":"6","num_nodes":"21","size_leaf_vector":"1"}},{"base_weights":[-1.1784297E-2,1.3104932E-1,-7.322222E-2,4.2139236E-2,-2.905184E-1,-1.1752581E-1,4.1731793E-1,-1.4574918E-1,-1.6858896E-2,5.9221912E-2,-3.3625975E-1,3.5096556E-2,1.4138764E-1,1.24434926E-1,-2.0007198E-1,-1.8007617E-1,2.2099385E-1,-1.3631177E-1,-5.1048134E-2,-3.3719632E-1,3.7243195E-2,-1.1330923E-1,-6.328748E-3,1.9469481E-2,1.1843823E-1,6.0711343E-2,-1.03887536E-1,-2.5718024E-3,-1.2753978E-1],"categories":[],"categories_nodes":[],"categories_segments":[],"categories_sizes":[],"default_left":[0,0,0,0,0,0,0,0,0,0,0,0,0,0,0,0,0,0,0,0,0,0,0,0,0,0,0,0,0],"id":39,"left_children":[1,-1,3,5,7,9,11,-1,13,15,17,-1,-1,-1,19,21,23,-1,25,27,-1,-1,-1,-1,-1,-1,-1,-1,-1],"loss_changes":[1.6883378E0,0E0,1.3587035E0,2.203123E0,9.9417853E-1,1.0252814E0,1.2243855E-1,0E0,7.825735E-1,6.2949497E-1,3.733629E-1,0E0,0E0,0E0,3.4794915E-1,2.0238413E-1,2.3313382E-1,0E0,4.123016E-1,1.4395446E-1,0E0,0E0,0E0,0E0,0E0,0E0,0E0,0E0,0E0],"parents":[2147483647,0,0,2,2,3,3,4,4,5,5,6,6,8,8,9,9,10,10,14,14,15,15,16,16,18,18,19,19],"right_children":[2,-1,4,6,8,10,12,-1,14,16,18,-1,-1,-1,20,22,24,-1,26,28,-1,-1,-1,-1,-1,-1,-1,-1,-1],"split_conditions":[4E0,1.3104932E-1,3.3275988E7,2.4245314E7,3.4109532E7,1.8615066E7,3.4727424E-3,-1.4574918E-1,3.870515E7,5.2020785E6,2.0053522E7,3.5096556E-2,1.4138764E-1,1.24434926E-1,3.9593944E7,3.1334792E6,5.3338665E6,-1.3631177E-1,2.6055778E7,-9.073415E-3,3.7243195E-2,-1.1330923E-1,-6.328748E-3,1.9469481E-2,1.1843823E-1,6.0711343E-2,-1.03887536E-1,-2.5718024E-3,-1.2753978E-1],"split_indices":[4,0,0,1,1,0,3,0,0,1,1,0,0,0,1,2,2,0,0,3,0,0,0,0,0,0,0,0,0],"split_type":[0,0,0,0,0,0,0,0,0,0,0,0,0,0,0,0,0,0,0,0,0,0,0,0,0,0,0,0,0],"sum_hessian":[5.909551E1,6.382299E0,5.271321E1,3.4959473E1,1.7753736E1,2.5004879E1,9.954596E0,9.907437E0,7.846299E0,1.4233094E1,1.0771784E1,1.9990025E0,7.955593E0,1.9613967E0,5.8849025E0,5.695292E0,8.537802E0,7.197871E0,3.5739129E0,4.107595E0,1.7773079E0,1.9257416E0,3.7695506E0,5.221559E0,3.316243E0,2.092446E0,1.4814668E0,1.0987986E0,3.0087962E0],"tree_param":{"num_deleted":"0","num_feature":"6","num_nodes":"29","size_leaf_vector":"1"}},{"base_weights":[8.463341E-3,-1.1708207E-1,3.18739E-2,-9.987683E-2,4.5371633E-2,5.5402376E-2,-8.71146E-2,1.6242065E-1,2.5471779E-2,1.1611119E-1,6.74807E-2,-7.1006246E-2,7.352345E-2,-1.4135719E-2,1.1262125E-1,-3.7228823E-2,6.891404E-2,3.7033502E-2,-4.221166E-2],"categories":[],"categories_nodes":[],"categories_segments":[],"categories_sizes":[],"default_left":[0,0,0,0,0,0,0,0,0,0,0,0,0,0,0,0,0,0,0],"id":40,"left_children":[1,-1,3,-1,5,7,-1,9,11,-1,13,15,17,-1,-1,-1,-1,-1,-1],"loss_changes":[7.526726E-1,0E0,3.8846868E-1,0E0,2.653123E-1,2.2871053E-1,0E0,3.0871847E-1,2.7406976E-1,0E0,4.4988745E-1,3.444478E-1,4.3663222E-1,0E0,0E0,0E0,0E0,0E0,0E0],"parents":[2147483647,0,0,2,2,4,4,5,5,7,7,8,8,10,10,11,11,12,12],"right_children":[2,-1,4,-1,6,8,-1,10,12,-1,14,16,18,-1,-1,-1,-1,-1,-1],"split_conditions":[4E0,-1.1708207E-1,6.860118E6,-9.987683E-2,4.163563E7,1.067766E-1,-8.71146E-2,2.8924478E6,6E0,1.1611119E-1,4.068385E7,9.024533E6,4.370157E7,-1.4135719E-2,1.1262125E-1,-3.7228823E-2,6.891404E-2,3.7033502E-2,-4.221166E-2],"split_indices":[4,0,0,0,1,3,0,2,4,0,0,2,0,0,0,0,0,0,0],"split_type":[0,0,0,0,0,0,0,0,0,0,0,0,0,0,0,0,0,0,0],"sum_hessian":[7.829947E1,3.4731266E0,7.482635E1,1.8254594E0,7.3000885E1,7.169399E1,1.3068889E0,1.4701502E1,5.6992493E1,3.4537313E0,1.124777E1,1.8789425E1,3.8203068E1,8.814324E0,2.433446E0,1.646924E1,2.3201847E0,3.1326792E1,6.8762774E0],"tree_param":{"num_deleted":"0","num_feature":"6","num_nodes":"19","size_leaf_vector":"1"}},{"base_weights":[7.790486E-4,3.974141E-2,-1.18351854E-1,-2.000797E-2,3.3917937E-1,5.7138998E-2,-3.4640786E-1,6.5153986E-2,1.3021617E-1,1.1863744E-1,-3.36768E-1,-1.289166E-1,-1.2205548E-1,-8.244234E-3,3.7658833E-2,-5.8728005E-3,4.4545856E-1,-1.3005063E-1,-4.531417E-3,5.7741728E-2,-1.00764595E-1,2.3379842E-2,-1.0961721E-1,2.9533373E-2,1.4517781E-1],"categories":[],"categories_nodes":[],"categories_segments":[],"categories_sizes":[],"default_left":[0,0,0,0,0,0,0,0,0,0,0,0,0,0,0,0,0,0,0,0,0,0,0,0,0],"id":41,"left_children":[1,3,-1,5,7,9,11,13,-1,15,17,-1,19,-1,-1,21,23,-1,-1,-1,-1,-1,-1,-1,-1],"loss_changes":[7.48035E-1,7.974667E-1,0E0,9.712883E-1,1.6429108E-1,8.011224E-1,8.522111E-2,2.0684663E-2,0E0,1.1386542E0,1.335873E-1,0E0,2.927212E-1,0E0,0E0,6.6730964E-1,5.534184E-2,0E0,0E0,0E0,0E0,0E0,0E0,0E0,0E0],"parents":[2147483647,0,0,1,1,3,3,4,4,5,5,6,6,7,7,9,9,10,10,12,12,15,15,16,16],"right_children":[2,4,-1,6,8,10,12,14,-1,16,18,-1,20,-1,-1,22,24,-1,-1,-1,-1,-1,-1,-1,-1],"split_conditions":[3.355044E7,4.536218E7,-1.18351854E-1,7.0932085E6,6E0,2.6397728E7,3.870515E7,4.741518E7,1.3021617E-1,3.393464E7,4.068385E7,-1.289166E-1,8.456044E6,-8.244234E-3,3.7658833E-2,2.0053522E7,1.9289511E-1,-1.3005063E-1,-4.531417E-3,5.7741728E-2,-1.00764595E-1,2.3379842E-2,-1.0961721E-1,2.9533373E-2,1.4517781E-1],"split_indices":[1,0,0,2,4,1,0,0,0,0,0,0,2,0,0,1,3,0,0,0,0,0,0,0,0],"split_type":[0,0,0,0,0,0,0,0,0,0,0,0,0,0,0,0,0,0,0,0,0,0,0,0,0],"sum_hessian":[4.6551785E1,4.3193737E1,3.358047E0,3.6786583E1,6.407156E0,3.0421244E1,6.365339E0,2.0816061E0,4.3255496E0,2.6917576E1,3.503668E0,3.974138E0,2.3912008E0,1.0363531E0,1.0452532E0,2.0202852E1,6.714724E0,2.4263122E0,1.0773559E0,1.0081419E0,1.3830588E0,1.7018885E1,3.1839666E0,1.0252379E0,5.689486E0],"tree_param":{"num_deleted":"0","num_feature":"6","num_nodes":"25","size_leaf_vector":"1"}},{"base_weights":[-1.1902604E-2,1.2701333E-1,-6.7253724E-2,3.9455034E-2,-2.7546704E-1,-1.0813811E-1,4.0045586E-1,-1.422919E-1,-1.6600613E-2,1.32122E-1,-2.5457683E-1,1.3253877E-1,9.077099E-3,2.9157427E-1,-2.6909226E-1,-1.2399145E-1,3.2344675E-1,-4.0149143E-1,-5.1076442E-2,2.5813095E-3,1.16670474E-1,-1.1978505E-1,1.3619012E-2,-7.995942E-2,6.3405864E-2,1.1358904E-1,2.6240382E-2,-1.2819117E-1,-3.6525145E-2,3.5188142E-2,-8.436641E-2],"categories":[],"categories_nodes":[],"categories_segments":[],"categories_sizes":[],"default_left":[0,0,0,0,0,0,0,0,0,0,0,0,0,0,0,0,0,0,0,0,0,0,0,0,0,0,0,0,0,0,0],"id":42,"left_children":[1,-1,3,5,7,9,11,-1,13,15,17,-1,-1,19,21,23,25,27,29,-1,-1,-1,-1,-1,-1,-1,-1,-1,-1,-1,-1],"loss_changes":[1.3283588E0,0E0,1.0935267E0,1.8064843E0,8.484554E-1,8.8775027E-1,1.3685465E-1,0E0,7.2146505E-1,5.2283305E-1,4.4064718E-1,0E0,0E0,1.1236331E-1,2.253918E-1,2.9224235E-1,4.392177E-2,1.1604905E-2,3.2797375E-1,0E0,0E0,0E0,0E0,0E0,0E0,0E0,0E0,0E0,0E0,0E0,0E0],"parents":[2147483647,0,0,2,2,3,3,4,4,5,5,6,6,8,8,9,9,10,10,13,13,14,14,15,15,16,16,17,17,18,18],"right_children":[2,-1,4,6,8,10,12,-1,14,16,18,-1,-1,20,22,24,26,28,30,-1,-1,-1,-1,-1,-1,-1,-1,-1,-1,-1,-1],"split_conditions":[4E0,1.2701333E-1,3.3275988E7,2.4245314E7,3.4109532E7,1.4810884E7,3.2521122E7,-1.422919E-1,4.0832148E7,3.4587745E6,6.3E1,1.3253877E-1,9.077099E-3,7E0,3.9593944E7,1.0311636E7,8.5E1,9E0,7.9E1,2.5813095E-3,1.16670474E-1,-1.1978505E-1,1.3619012E-2,-7.995942E-2,6.3405864E-2,1.1358904E-1,2.6240382E-2,-1.2819117E-1,-3.6525145E-2,3.5188142E-2,-8.436641E-2],"split_indices":[4,0,0,1,1,0,0,0,0,2,5,0,0,4,1,1,5,4,5,0,0,0,0,0,0,0,0,0,0,0,0],"split_type":[0,0,0,0,0,0,0,0,0,0,0,0,0,0,0,0,0,0,0,0,0,0,0,0,0,0,0,0,0,0,0],"sum_hessian":[5.295223E1,5.223755E0,4.7728474E1,3.2091946E1,1.5636529E1,2.3276094E1,8.81585E0,8.372918E0,7.263612E0,8.851432E0,1.4424663E1,7.7563047E0,1.0595458E0,3.2014015E0,4.06221E0,3.9353623E0,4.91607E0,7.811975E0,6.612687E0,1.0978662E0,2.1035354E0,2.6822104E0,1.3799998E0,2.9055452E0,1.0298172E0,3.4943993E0,1.4216706E0,6.669101E0,1.1428741E0,4.1020455E0,2.5106413E0],"tree_param":{"num_deleted":"0","num_feature":"6","num_nodes":"31","size_leaf_vector":"1"}},{"base_weights":[8.972912E-3,-1.1010751E-1,2.8595282E-2,-1.6883063E-1,5.227592E-2,-2.5684226E-3,-1.1155279E-1,2.188466E-1,3.168859E-2,1.2688474E-1,-7.9413354E-2,6.845403E-2,1.0906509E-1,2.2687292E-1,1.225868E-2,-2.8220082E-2,2.2936921E-1,6.1850216E-2,-2.3792153E-2,3.5650584E-1,-2.9088313E-2,-1.6155098E-1,4.143621E-2,9.813569E-3,9.487609E-2,3.307728E-2,1.3502851E-1,-1.0020481E-1,-6.257355E-3,8.57136E-2,3.9388267E-3],"categories":[],"categories_nodes":[],"categories_segments":[],"categories_sizes":[],"default_left":[0,0,0,0,0,0,0,0,0,0,0,0,0,0,0,0,0,0,0,0,0,0,0,0,0,0,0,0,0,0,0],"id":43,"left_children":[1,-1,3,5,7,9,-1,11,13,15,-1,17,-1,19,21,-1,23,-1,-1,25,-1,27,29,-1,-1,-1,-1,-1,-1,-1,-1],"loss_changes":[5.5279416E-1,0E0,3.397556E-1,2.629105E-1,2.1242376E-1,2.1360376E-1,0E0,1.2455654E-1,2.1755812E-1,1.1729405E-1,0E0,1.099403E-1,0E0,2.529831E-1,2.8002435E-1,0E0,4.3964073E-2,0E0,0E0,4.09306E-2,0E0,1.8596959E-1,3.2086277E-1,0E0,0E0,0E0,0E0,0E0,0E0,0E0,0E0],"parents":[2147483647,0,0,2,2,3,3,4,4,5,5,7,7,8,8,9,9,11,11,13,13,14,14,16,16,19,19,21,21,22,22],"right_children":[2,-1,4,6,8,10,-1,12,14,16,-1,18,-1,20,22,-1,24,-1,-1,26,-1,28,30,-1,-1,-1,-1,-1,-1,-1,-1],"split_conditions":[4E0,-1.1010751E-1,1.3022106E7,4.7128715E6,-2.4508372E-2,1.0459884E7,-1.1155279E-1,-8.1356235E-2,1.5427996E7,6.9798735E6,-7.9413354E-2,2.8809892E7,1.0906509E-1,1.2503858E7,7.7768125E6,-2.8220082E-2,2.8713795E6,6.1850216E-2,-2.3792153E-2,7E0,-2.9088313E-2,4.1364268E6,1.0821646E7,9.813569E-3,9.487609E-2,3.307728E-2,1.3502851E-1,-1.0020481E-1,-6.257355E-3,8.57136E-2,3.9388267E-3],"split_indices":[4,0,0,2,3,1,0,3,0,0,0,1,0,1,1,0,2,0,0,4,0,2,1,0,0,0,0,0,0,0,0],"split_type":[0,0,0,0,0,0,0,0,0,0,0,0,0,0,0,0,0,0,0,0,0,0,0,0,0,0,0,0,0,0,0],"sum_hessian":[7.2502464E1,2.717928E0,6.978454E1,6.8174925E0,6.2967045E1,4.3046956E0,2.5127966E0,5.867041E0,5.7100002E1,3.2270582E0,1.0776376E0,3.5993006E0,2.2677405E0,4.202913E0,5.289709E1,1.048556E0,2.1785023E0,1.6583993E0,1.9409013E0,2.9293737E0,1.273539E0,6.9513397E0,4.594575E1,1.089343E0,1.0891594E0,1.4065678E0,1.5228059E0,2.5057077E0,4.445632E0,3.8269918E0,4.211876E1],"tree_param":{"num_deleted":"0","num_feature":"6","num_nodes":"31","size_leaf_vector":"1"}},{"base_weights":[-3.924159E-4,-1.1394678E-1,3.6936026E-2,-2.2361715E-1,8.787318E-2,5.1710244E-2,-3.7677103E-1,2.6919758E-1,-4.2036466E-2,-2.5441498E-2,-1.2761703E-1,3.513249E-1,-7.268831E-2,-3.6781383E-1,5.5828705E-2,4.3776914E-2,4.1432238E-1,-9.075135E-2,5.2761834E-2,-1.747496E-2,-1.2894547E-1,1.9039087E-1,-1.2623577E-1,-5.4177463E-2,7.103187E-2,1.4923026E-1,2.6418503E-2,1.0304369E-1,-4.0670104E-2,3.051589E-2,-8.54979E-2],"categories":[],"categories_nodes":[],"categories_segments":[],"categories_sizes":[],"default_left":[0,0,0,0,0,0,0,0,0,0,0,0,0,0,0,0,0,0,0,0,0,0,0,0,0,0,0,0,0,0,0],"id":44,"left_children":[1,-1,3,5,7,-1,9,11,13,-1,-1,15,17,19,21,23,25,-1,-1,-1,-1,27,29,-1,-1,-1,-1,-1,-1,-1,-1],"loss_changes":[6.4063954E-1,0E0,5.663152E-1,4.9054685E-1,8.3982265E-1,0E0,4.0215313E-2,4.4154215E-1,7.014164E-1,0E0,0E0,2.1663928E-1,2.644605E-1,7.218695E-2,4.4764364E-1,1.803867E-1,2.2571242E-1,0E0,0E0,0E0,0E0,5.6259215E-1,3.166861E-1,0E0,0E0,0E0,0E0,0E0,0E0,0E0,0E0],"parents":[2147483647,0,0,2,2,3,3,4,4,6,6,7,7,8,8,11,11,12,12,13,13,14,14,15,15,16,16,21,21,22,22],"right_children":[2,-1,4,6,8,-1,10,12,14,-1,-1,16,18,20,22,24,26,-1,-1,-1,-1,28,30,-1,-1,-1,-1,-1,-1,-1,-1],"split_conditions":[9.729079E-2,-1.1394678E-1,1.6941186E7,3.5686318E6,1.6219688E7,5.1710244E-2,4.8786065E6,6.2478385E6,3.3275988E7,-2.5441498E-2,-1.2761703E-1,5E0,3.745337E7,2.539899E-1,6E1,5.1112915E6,4.304274E6,-9.075135E-2,5.2761834E-2,-1.747496E-2,-1.2894547E-1,3.1425324E7,6E0,-5.4177463E-2,7.103187E-2,1.4923026E-1,2.6418503E-2,1.0304369E-1,-4.0670104E-2,3.051589E-2,-8.54979E-2],"split_indices":[3,0,0,1,1,0,1,2,0,0,0,4,0,3,5,2,2,0,0,0,0,1,4,0,0,0,0,0,0,0,0],"split_type":[0,0,0,0,0,0,0,0,0,0,0,0,0,0,0,0,0,0,0,0,0,0,0,0,0,0,0,0,0,0,0],"sum_hessian":[4.32411E1,3.051236E0,4.0189865E1,6.017771E0,3.4172092E1,1.6433583E0,4.3744125E0,1.3815958E1,2.0356134E1,1.016204E0,3.3582082E0,1.1117678E1,2.6982803E0,